Language model created by QuickLM on Thu Nov 29 07:32:58 EST 2018
Copyright (c) 1996-2010 Carnegie Mellon University and Alexander I. Rudnicky

The model is in standard ARPA format, designed by Doug Paul while he was at MITRE.

The code that was used to produce this language model is available in Open Source.
Please visit http://www.speech.cs.cmu.edu/tools/ for more information

The (fixed) discount mass is 0.5. The backoffs are computed using the ratio method.
This model based on a corpus of 501590 sentences and 493 words

\data\
ngram 1=493
ngram 2=1666
ngram 3=3819

\1-grams:
-7.0244 1 -0.2799
-7.0244 2 -0.2799
-1.3240 </s> -0.3010
-1.3240 <s> -0.1074
-6.3254 A -0.3010
-7.0244 ABOARD -0.2799
-7.0244 ADD -0.2799
-6.4223 ADF1 -0.2799
-6.4223 ADF2 -0.2799
-7.0244 ADJUST -0.2799
-7.0244 ADJUSTED -0.2799
-7.0244 ADVISED -0.2799
-7.0244 AFFIRMATIVE -0.2799
-6.7234 AFTER -0.3010
-6.2462 AGAIN -0.2799
-7.0244 AIRCRAFT -0.2799
-5.9830 ALL -0.2799
-6.7234 ALT -0.2799
-7.0244 ALTERNATE -0.2799
-3.0242 ALTIMETER -0.1114
-4.2384 ALTITUDE -0.2307
-6.0702 AND -0.2902
-7.0244 ANNOUNCED -0.2799
-7.0244 APP -0.2799
-6.7234 APPROACH -0.2799
-5.9830 APU -0.2799
-7.0244 ARE -0.2799
-6.0244 ARM -0.2799
-6.7234 ARMED -0.2799
-6.5473 AROUND -0.2799
-6.4223 AS -0.3010
-7.0244 AT -0.3010
-6.4223 ATTENDANT -0.2799
-7.0244 AUDIBLY -0.2799
-6.7234 AUTO -0.2799
-6.7234 AUTOBRAKE -0.2799
-7.0244 AUTOMATIC -0.2799
-6.0244 AUTOPILOT -0.2799
-6.2462 AUTOTHROTTLE -0.2799
-6.7234 AUTOTHROTTLES -0.2799
-7.0244 AUXILIARY -0.2799
-7.0244 AVAILABLE -0.2799
-6.3254 AVIONICS -0.2799
-6.1793 BACK -0.2799
-6.7234 BARO -0.2799
-7.0244 BAROMETER -0.2799
-7.0244 BASICS -0.2799
-7.0244 BATTERIES -0.2799
-7.0244 BATTERY -0.2799
-6.0702 BEACON -0.3010
-6.5473 BEFORE -0.3010
-7.0244 BEGINNING -0.2799
-7.0244 BELLY -0.3010
-7.0244 BELTS -0.2799
-6.7234 BLEED -0.2799
-7.0244 BLEEDS -0.2799
-6.7234 BOARDING -0.2799
-6.7234 BOTH -0.3010
-6.7234 BRAKE -0.3010
-6.2462 BRAKES -0.2799
-6.7234 BRAKING -0.2799
-7.0244 BREAKERS -0.2799
-7.0244 BRIGHT -0.2799
-6.7234 BRIGHTEN -0.3010
-6.5473 BUG -0.2799
-7.0244 BULB -0.2799
-6.7234 BY -0.2677
-6.7234 C -0.2799
-6.4223 CABIN -0.2799
-7.0244 CALCULATED -0.2799
-6.7234 CAN -0.3010
-7.0244 CANCEL -0.3010
-7.0244 CAPTURE -0.2799
-6.7234 CDU -0.2799
-6.1793 CHANGE -0.2587
-6.5473 CHARLIE -0.2799
-7.0244 CHARTS -0.2799
-6.0702 CHECK -0.2795
-6.2462 CHECKED -0.2799
-5.5930 CHECKLIST -0.2799
-7.0244 CHECKS -0.3010
-7.0244 CIRCUIT -0.3010
-7.0244 CLEAR -0.2799
-7.0244 CLEARANCE -0.2799
-6.7234 CLIMB -0.2799
-6.4223 CLOSED -0.2799
-7.0244 COLD -0.2799
-1.6442 COM1 -0.1114
-1.6442 COM2 -0.1114
-6.7234 COMMUNICATIONS -0.3010
-7.0244 COMPLETE -0.2799
-7.0244 COMPLETED -0.2799
-7.0244 CONDITION -0.2799
-7.0244 CONDUCT -0.2799
-7.0244 CONDUCTED -0.2799
-7.0244 CONFIGURED -0.2799
-7.0244 CONFIRM -0.2799
-6.7234 CONNECT -0.2799
-7.0244 CONTINUOUS -0.2799
-7.0244 CORRECT -0.2799
-7.0244 COULD -0.3010
-7.0244 COULDN'T -0.3010
-6.5473 COUPLE -0.2799
-6.2462 COURSE -0.2799
-7.0244 CREW -0.3010
-7.0244 CROSS -0.3010
-7.0244 CROSSCHECK -0.2799
-6.7234 CRUISE -0.2799
-6.7234 CUTOFF -0.2799
-7.0244 CUTOUT -0.2799
-7.0244 DAMPER -0.2799
-6.7234 DARK -0.2799
-7.0244 DECIMAL -0.2799
-7.0244 DECREASING -0.2799
-5.0606 DEGREES -0.2799
-7.0244 DEPARTURE -0.2799
-7.0244 DESCENT -0.3010
-6.4223 DESELECT -0.3010
-7.0244 DESIRED -0.2799
-7.0244 DETENT -0.2799
-7.0244 DIFF -0.2799
-7.0244 DIFFERENTIAL -0.2799
-6.5473 DIRECTOR -0.2799
-6.7234 DIRECTORS -0.3010
-6.3254 DISABLE -0.2795
-7.0244 DISABLED -0.2799
-6.3254 DISARM -0.3010
-7.0244 DISARMED -0.2799
-7.0244 DISC -0.2799
-6.2462 DISCONNECT -0.2799
-7.0244 DISCONNECTED -0.2799
-6.2462 DISENGAGE -0.2799
-6.7234 DO -0.3010
-6.4223 DOOR -0.2799
-6.7234 DOORS -0.2799
-6.0244 DOWN -0.2799
-7.0244 DROPPING -0.2799
-6.4223 DUE -0.3010
-6.7234 EAST -0.2799
-7.0244 ECAM -0.2799
-7.0244 EFIS -0.2799
-1.6440 EIGHT -0.1088
-7.0244 EIGHTEEN -0.2799
-5.1106 EIGHTY -0.1114
-7.0244 ELECTRICAL -0.2799
-7.0244 ELEVEN -0.2799
-6.5473 EMERGENCY -0.2799
-6.5473 ENABLE -0.2795
-7.0244 ENABLED -0.2799
-6.3254 ENGAGE -0.2799
-6.3254 ENGINE -0.2799
-7.0244 ENGINES -0.2799
-6.7234 ENTIRELY -0.2799
-7.0244 EUROPE -0.2799
-6.7234 EUROPEAN -0.2799
-7.0244 EVACUATE -0.2799
-7.0244 EVACUATION -0.2799
-7.0244 EXECUTE -0.2799
-6.5473 EXTEND -0.2799
-6.7234 EXTENDED -0.2799
-7.0244 EXTERIOR -0.2799
-6.5473 EXTERNAL -0.2799
-7.0244 EXTINGUISHED -0.2799
-6.7234 FAILURE -0.2799
-7.0244 FASTEN -0.3010
-7.0244 FASTENED -0.2799
-7.0244 FAULT -0.2799
-4.5458 FEET -0.2799
-7.0244 FIFTEEN -0.2799
-5.1159 FIFTY -0.1114
-7.0244 FIRE -0.2799
-1.6440 FIVE -0.1088
-7.0244 FIXED -0.2799
-5.7022 FLAPS -0.2799
-6.7234 FLARE -0.2799
-5.9452 FLIGHT -0.3010
-5.9452 FLIP -0.2809
-7.0244 FLOW -0.2799
-7.0244 FMS -0.2799
-5.9830 FOR -0.3010
-6.5473 FORGET -0.3010
-5.1159 FORTY -0.1114
-7.0244 FORWARD -0.2799
-1.6440 FOUR -0.1088
-7.0244 FOURTEEN -0.2799
-6.7234 FREE -0.2799
-7.0244 FREQUENCY -0.2799
-6.7234 FRONT -0.3010
-7.0244 FUEL -0.2799
-6.7234 FULL -0.3010
-7.0244 GAUGES -0.2799
-5.8783 GEAR -0.2799
-7.0244 GEN -0.2799
-7.0244 GENERATORS -0.2799
-7.0244 GLIDESLOPE -0.2799
-6.2462 GO -0.2799
-7.0244 GO-AROUND -0.2799
-7.0244 GOT -0.3010
-7.0244 GPWS -0.2799
-6.7234 GREEN -0.2799
-6.5473 GROUND -0.2799
-7.0244 GUARD -0.2799
-7.0244 HAM? -0.2799
-4.7105 HEADING -0.1114
-7.0244 HEAR -0.3010
-6.1793 HEAT -0.2799
-7.0244 HEATER -0.2799
-7.0244 HECTOPASCALS -0.2799
-7.0244 HEM? -0.2799
-6.5473 HNAV -0.2799
-5.8783 HOLD -0.2799
-6.4223 HORIZONTAL -0.2799
-7.0244 HOW -0.3010
-7.0244 HOW'S -0.3010
-7.0244 HUM? -0.2799
-4.7212 HUNDRED -0.2799
-7.0244 HYDRAULIC -0.2799
-7.0244 I -0.3010
-7.0244 IAS -0.2799
-6.7234 IDENT -0.2799
-7.0244 IDENTIFY -0.2799
-6.5473 IDLE -0.2799
-7.0244 IF -0.3010
-7.0244 IFR -0.2799
-7.0244 IGNITE -0.2799
-7.0244 ILLUMINATED -0.2799
-6.4223 IN -0.2799
-7.0244 INCHES -0.3010
-7.0244 INCREASING -0.2799
-7.0244 INIT -0.3010
-7.0244 INOP -0.2799
-7.0244 INOPERATIVE -0.2799
-6.5473 INSTRUMENTS -0.2799
-6.7234 INTERCEPT -0.2799
-7.0244 INTERCEPTOR -0.2799
-7.0244 INTERIOR -0.2799
-7.0244 INTERNAL -0.2799
-6.1793 INTERVENTION -0.2799
-7.0244 IRS -0.2799
-6.1213 IS -0.3010
-7.0244 IT -0.2799
-7.0244 KIAS -0.2799
-7.0244 KILL -0.3010
-7.0244 KNOTS -0.2799
-7.0244 KNOW -0.2799
-5.7022 LANDING -0.2799
-6.7234 LAST -0.2799
-7.0244 LATER -0.2799
-6.7234 LATER? -0.2799
-6.5473 LATERAL -0.3010
-7.0244 LEAN -0.2799
-6.2462 LEFT -0.2799
-7.0244 LET -0.3010
-6.4223 LET'S -0.3010
-6.1793 LEVEL -0.2799
-5.7022 LIGHT -0.2799
-6.7234 LIGHTING -0.2799
-5.3712 LIGHTS -0.2799
-7.0244 LIKE -0.2799
-6.7234 LIKE? -0.2799
-6.4223 LNAV -0.2799
-6.4223 LOCALIZER -0.2799
-6.5473 LOCKED -0.2799
-6.2462 LOGO -0.2799
-6.5473 LOOKING -0.2799
-7.0244 LOUD -0.2799
-6.5473 LOWER -0.3010
-7.0244 MACH -0.2799
-7.0244 MAKE -0.2799
-7.0244 MANUAL -0.3010
-7.0244 MARKER -0.2799
-7.0244 MARKERS -0.2799
-6.5473 MAX -0.2799
-6.5473 MAXIMUM -0.3010
-7.0244 MCP -0.2799
-6.5473 ME -0.3010
-7.0244 MEAL -0.3010
-6.5473 MEALS -0.2799
-7.0244 MERCURY -0.2799
-7.0244 MILES -0.2799
-6.5473 MILITARY -0.3010
-7.0244 MINIMUMS -0.2799
-7.0244 MINUS -0.2799
-7.0244 MIXTURE -0.2799
-6.1793 MODE -0.3010
-6.4223 MUTE -0.2809
-7.0244 MY -0.3010
-6.7234 N1 -0.2799
-6.7234 N2 -0.2799
-7.0244 NAUTICAL -0.3010
-5.9105 NAV -0.2799
-7.0244 NAV1 -0.2799
-7.0244 NAV2 -0.2799
-5.9830 NAVIGATION -0.2799
-7.0244 NEEDED -0.2799
-7.0244 NEGATIVE -0.2799
-7.0244 NEXT -0.2799
-1.6440 NINE -0.1088
-7.0244 NINER -0.2799
-7.0244 NINETEEN -0.2799
-5.1053 NINETY -0.1114
-7.0244 NON -0.3010
-6.7234 NORMAL -0.2799
-7.0244 NOTCH -0.2799
-7.0244 NOTIFIED -0.2799
-7.0244 NOTIFY -0.2799
-7.0244 NUMBER -0.2799
-6.7234 OBTAIN -0.2799
-7.0244 OF -0.3010
-5.2462 OFF -0.2799
-7.0244 OKAY -0.3010
-5.1919 ON -0.2799
-1.5771 ONE -0.1088
-6.3254 OPEN -0.3010
-7.0244 OPERATION -0.2799
-7.0244 OUT -0.2799
-6.5473 OVER -0.2799
-7.0244 OXYGEN -0.2799
-7.0244 P.A -0.2799
-7.0244 PA -0.3010
-6.4223 PACK -0.2799
-6.7234 PARK -0.2799
-6.4223 PARKING -0.3010
-7.0244 PATH -0.2799
-6.7234 PAUSE -0.3010
-7.0244 PEDAL -0.2799
-6.1213 PITOT -0.3010
-6.5473 PLEASE -0.3010
-7.0244 POINT -0.2799
-6.2462 POSITION -0.2799
-6.2462 POWER -0.2799
-7.0244 PREFLIGHT -0.3010
-7.0244 PRESSURE -0.2799
-7.0244 PROGRAMMED -0.2799
-7.0244 PROPS -0.2799
-7.0244 PSI -0.2799
-7.0244 PULL -0.2799
-7.0244 PUMP -0.2799
-6.2462 PUSHBACK -0.2799
-7.0244 PUSHING -0.3010
-6.7234 PUT -0.3010
-7.0244 QNH -0.2799
-7.0244 QUANTITIES -0.2799
-6.7234 QUANTITY -0.2799
-7.0244 QUIET -0.2799
-6.7234 RADIAL -0.2799
-6.7234 RADIO -0.3010
-7.0244 RADIOS -0.2799
-6.4223 RAISE -0.3010
-5.9105 READY -0.2799
-6.5473 REAR -0.2799
-7.0244 RECALL -0.2799
-7.0244 RECORD -0.2799
-7.0244 RED -0.3010
-6.7234 REF -0.2799
-7.0244 REJECTED -0.3010
-7.0244 RELEASE -0.2799
-7.0244 RELEASED -0.2799
-7.0244 REMOVE -0.2799
-6.4223 REPEAT -0.3010
-7.0244 REQUEST -0.3010
-6.5473 REQUIRED -0.2799
-6.7234 RESUME -0.3010
-6.3254 RETRACT -0.2799
-6.7234 RETRACTED -0.2799
-6.7234 REVERSAL -0.3010
-6.1213 REVERSE -0.3010
-6.7234 REVERSERS -0.3010
-7.0244 REVIEW -0.2799
-7.0244 REVIEWED -0.2799
-7.0244 RICH -0.2799
-6.2462 RIGHT -0.2799
-7.0244 RISE -0.2799
-7.0244 RISING -0.2799
-6.7234 ROGER -0.2799
-7.0244 ROLL -0.3010
-6.4223 ROTATE -0.3010
-6.4223 ROTATION -0.3010
-7.0244 ROUTES -0.2799
-7.0244 RPM -0.2799
-7.0244 RTO -0.2799
-7.0244 RUNWAY -0.2799
-6.4223 SAY -0.3010
-6.7234 SCHEDULE -0.2799
-6.5473 SEATBELT -0.3010
-7.0244 SECONDS -0.2799
-6.7234 SECURE -0.2799
-5.6820 SELECT -0.2587
-7.0244 SELECTED -0.2799
-7.0244 SELECTOR -0.2799
-6.5473 SERVE -0.3010
-1.6080 SET -0.2578
-7.0244 SETTING -0.2799
-7.0244 SETUP -0.2799
-1.6440 SEVEN -0.1088
-7.0244 SEVENTEEN -0.2799
-5.1106 SEVENTY -0.1114
-6.5473 SHUT -0.3010
-6.7234 SID -0.2799
-6.7234 SIDE -0.2799
-6.7234 SIGN -0.2799
-7.0244 SIGNAL -0.2799
-1.6440 SIX -0.1088
-7.0244 SIXTEEN -0.2799
-5.1106 SIXTY -0.1114
-7.0244 SORRY? -0.2799
-7.0244 SOUTH -0.2799
-5.6820 SPEED -0.2799
-6.4223 SPEED? -0.2799
-7.0244 SPEEDBRAKE -0.2799
-6.0702 SPEEDBRAKES -0.2799
-6.2462 SPOILERS -0.2799
-5.8483 SQUAWK -0.3010
-6.4223 STANDARD -0.2799
-6.4223 STANDBY -0.2799
-6.7234 STAR -0.2799
-5.8203 START -0.2799
-6.7234 STOP -0.3010
-7.0244 STOWED -0.2799
-6.7234 STROBE -0.2799
-6.7234 SWITCH -0.3010
-7.0244 SYNC -0.2799
-6.7234 SYSTEM -0.2799
-7.0244 TA -0.2799
-7.0244 TA-RA -0.2799
-5.9452 TAKEOFF -0.2799
-5.9452 TAXI -0.2799
-7.0244 TAXIWAY -0.2799
-6.2462 TELL -0.3010
-6.7234 TEMPERATURE -0.2799
-6.7234 TEMPERATURE? -0.2799
-2.4215 TEN -0.1114
-7.0244 TEST -0.2799
-7.0244 THANK -0.3010
-7.0244 THANKS -0.2799
-6.2462 THAT -0.2799
-7.0244 THAT? -0.2799
-4.9791 THE -0.3002
-7.0244 THEN -0.2799
-7.0244 THIRTEEN -0.2799
-5.1159 THIRTY -0.1114
-6.2462 THIS -0.2799
-4.7169 THOUSAND -0.2799
-1.6440 THREE -0.1088
-5.8203 THRUST -0.2799
-7.0244 TIME -0.2799
-5.7234 TO -0.2799
-7.0244 TOGA -0.2799
-6.1213 TOGGLE -0.3010
-7.0244 TOO -0.3010
-6.7234 TRANSITION -0.2799
-3.0236 TRANSPONDER -0.1114
-7.0244 TUBE -0.2799
-1.6442 TUNE -0.2809
-7.0244 TUNED -0.2799
-5.3523 TURN -0.3010
-7.0244 TURNOFF -0.2799
-7.0244 TWELVE -0.2799
-5.1159 TWENTY -0.1114
-1.6440 TWO -0.1088
-7.0244 UNIT -0.2799
-7.0244 UNLOCKED -0.2799
-5.7234 UP -0.2677
-6.5473 V1 -0.2799
-6.7234 V1? -0.2799
-6.5473 V2 -0.2799
-6.7234 V2? -0.2799
-6.7234 VERIFY -0.2799
-6.1793 VERTICAL -0.3010
-6.2462 VFR -0.2799
-7.0244 VISUALLY -0.2799
-6.3254 VNAV -0.2799
-7.0244 VOR -0.3010
-7.0244 VR? -0.2799
-7.0244 WAT? -0.2799
-6.3254 WAY -0.2799
-6.7234 WE -0.3010
-6.3254 WE'RE -0.3010
-6.5473 WEATHER -0.2799
-6.5473 WEATHER? -0.2799
-7.0244 WEST -0.2799
-6.1793 WHAT -0.3010
-6.1793 WHAT'S -0.3010
-7.0244 WHAT? -0.2799
-6.7234 WHOLE -0.3010
-6.1793 WING -0.2799
-7.0244 WITHIN -0.2799
-7.0244 WORKING -0.2799
-7.0244 WUT? -0.2799
-7.0244 YAW -0.3010
-6.5473 YOU -0.2799
-7.0244 YOUR -0.3010
-1.0073 ZERO -0.1088

\2-grams:
-0.3010 1 </s> -0.3010
-0.3010 2 </s> -0.3010
-5.5243 <s> A -0.0792
-6.0014 <s> ABOARD 0.0000
-6.0014 <s> ADD 0.0000
-6.0014 <s> ADF1 0.0000
-6.0014 <s> ADF2 0.0000
-6.0014 <s> ADJUST 0.0000
-6.0014 <s> ADJUSTED 0.0000
-6.0014 <s> ADVISED 0.0000
-6.0014 <s> AFFIRMATIVE 0.0000
-5.7003 <s> AFTER 0.0000
-6.0014 <s> AIRCRAFT 0.0000
-5.0983 <s> ALL 0.0000
-6.0014 <s> ALT -0.1761
-6.0014 <s> ALTERNATE 0.0000
-6.0014 <s> ALTIMETER -0.3010
-5.3993 <s> ALTITUDE -0.2982
-6.0014 <s> ANNOUNCED 0.0000
-6.0014 <s> APP 0.0000
-5.7003 <s> APPROACH 0.0000
-5.7003 <s> APU -0.2596
-6.0014 <s> ARE 0.0000
-5.0014 <s> ARM 0.0000
-6.0014 <s> ARMED 0.0000
-5.3993 <s> AS 0.0000
-6.0014 <s> AUDIBLY 0.0000
-6.0014 <s> AUTO 0.0000
-6.0014 <s> AUTOBRAKE 0.0000
-5.3993 <s> AUTOPILOT -0.2041
-5.7003 <s> AUTOTHROTTLE -0.2218
-6.0014 <s> AUXILIARY 0.0000
-6.0014 <s> AVAILABLE 0.0000
-5.3024 <s> BACK -0.1091
-5.7003 <s> BARO 0.0000
-6.0014 <s> BAROMETER 0.0000
-6.0014 <s> BATTERIES 0.0000
-6.0014 <s> BATTERY 0.0000
-5.5243 <s> BEACON 0.0000
-5.5243 <s> BEFORE 0.0000
-6.0014 <s> BELLY 0.0000
-6.0014 <s> BLEED 0.0000
-6.0014 <s> BLEEDS 0.0000
-5.7003 <s> BOTH 0.0000
-6.0014 <s> BRAKES -0.2218
-6.0014 <s> BRIGHT 0.0000
-5.7003 <s> BRIGHTEN 0.0000
-6.0014 <s> BULB 0.0000
-5.7003 <s> CABIN -0.1761
-6.0014 <s> CALCULATED 0.0000
-5.7003 <s> CAN 0.0000
-6.0014 <s> CANCEL 0.0000
-6.0014 <s> CAPTURE 0.0000
-6.0014 <s> CDU 0.0000
-5.3993 <s> CHANGE -0.1549
-6.0014 <s> CHARTS 0.0000
-5.0471 <s> CHECK 0.0000
-5.3993 <s> CHECKED 0.0000
-6.0014 <s> CHECKLIST -0.0458
-6.0014 <s> CIRCUIT 0.0000
-6.0014 <s> CLEAR 0.0000
-6.0014 <s> CLIMB -0.1761
-5.5243 <s> CLOSED 0.0000
-6.0014 <s> COLD 0.0000
-5.7003 <s> COMMUNICATIONS 0.0000
-6.0014 <s> COMPLETE 0.0000
-6.0014 <s> COMPLETED 0.0000
-6.0014 <s> CONDUCT 0.0000
-6.0014 <s> CONDUCTED 0.0000
-6.0014 <s> CONFIGURED 0.0000
-6.0014 <s> CONFIRM 0.0000
-6.0014 <s> CONNECT -0.1761
-6.0014 <s> CONTINUOUS 0.0000
-6.0014 <s> COULD 0.0000
-5.7003 <s> COURSE -0.1249
-6.0014 <s> CROSS 0.0000
-6.0014 <s> CROSSCHECK 0.0000
-6.0014 <s> CRUISE 0.0000
-5.7003 <s> CUTOFF 0.0000
-6.0014 <s> CUTOUT 0.0000
-6.0014 <s> DARK 0.0000
-6.0014 <s> DECIMAL 0.0000
-6.0014 <s> DECREASING 0.0000
-6.0014 <s> DEGREES 0.0000
-6.0014 <s> DESCENT 0.0000
-5.3993 <s> DESELECT 0.0000
-6.0014 <s> DETENT 0.0000
-6.0014 <s> DIFF 0.0000
-6.0014 <s> DIFFERENTIAL 0.0000
-5.3024 <s> DISABLE 0.0000
-6.0014 <s> DISABLED 0.0000
-5.3024 <s> DISARM 0.0000
-6.0014 <s> DISARMED 0.0000
-6.0014 <s> DISC 0.0000
-5.5243 <s> DISCONNECT -0.1249
-6.0014 <s> DISCONNECTED 0.0000
-5.3024 <s> DISENGAGE 0.0000
-6.0014 <s> DOORS 0.0000
-5.7003 <s> DOWN -0.1139
-6.0014 <s> DROPPING 0.0000
-6.0014 <s> ECAM 0.0000
-6.0014 <s> EIGHT -0.2956
-6.0014 <s> EIGHTEEN 0.0000
-6.0014 <s> EIGHTY -0.2680
-6.0014 <s> ELECTRICAL 0.0000
-6.0014 <s> ELEVEN 0.0000
-6.0014 <s> EMERGENCY 0.0000
-5.5243 <s> ENABLE 0.0000
-6.0014 <s> ENABLED 0.0000
-5.3993 <s> ENGAGE 0.0000
-6.0014 <s> EVACUATE 0.0000
-6.0014 <s> EVACUATION 0.0000
-6.0014 <s> EXECUTE 0.0000
-5.5243 <s> EXTEND 0.0000
-5.7003 <s> EXTENDED 0.0000
-6.0014 <s> EXTERIOR 0.0000
-5.7003 <s> EXTERNAL 0.0000
-6.0014 <s> EXTINGUISHED 0.0000
-6.0014 <s> FASTENED 0.0000
-6.0014 <s> FAULT 0.0000
-6.0014 <s> FEET 0.0000
-6.0014 <s> FIFTEEN 0.0000
-6.0014 <s> FIFTY -0.2705
-6.0014 <s> FIRE 0.0000
-6.0014 <s> FIVE -0.2956
-6.0014 <s> FIXED 0.0000
-4.7973 <s> FLAPS 0.0000
-5.7003 <s> FLARE 0.0000
-5.1563 <s> FLIGHT 0.0000
-4.9222 <s> FLIP 0.0000
-6.0014 <s> FLOW 0.0000
-6.0014 <s> FMS 0.0000
-5.5243 <s> FORGET 0.0000
-6.0014 <s> FORTY -0.2705
-6.0014 <s> FORWARD 0.0000
-6.0014 <s> FOUR -0.2956
-6.0014 <s> FOURTEEN 0.0000
-5.7003 <s> FREE 0.0000
-6.0014 <s> FREQUENCY 0.0000
-6.0014 <s> FUEL 0.0000
-5.7003 <s> FULL 0.0000
-6.0014 <s> GAUGES 0.0000
-5.5243 <s> GEAR 0.0000
-6.0014 <s> GEN 0.0000
-6.0014 <s> GLIDESLOPE 0.0000
-5.5243 <s> GO -0.1761
-6.0014 <s> GO-AROUND 0.0000
-6.0014 <s> GOT 0.0000
-6.0014 <s> GPWS 0.0000
-5.7003 <s> GREEN 0.0000
-5.7003 <s> GROUND 0.0000
-6.0014 <s> GUARD 0.0000
-6.0014 <s> HAM? 0.0000
-5.3993 <s> HEADING -0.2914
-6.0014 <s> HECTOPASCALS 0.0000
-6.0014 <s> HEM? 0.0000
-5.7003 <s> HNAV -0.1249
-5.3024 <s> HOLD -0.0580
-5.7003 <s> HORIZONTAL 0.0000
-6.0014 <s> HOW 0.0000
-6.0014 <s> HOW'S 0.0000
-6.0014 <s> HUM? 0.0000
-6.0014 <s> HUNDRED -0.1754
-6.0014 <s> HYDRAULIC 0.0000
-6.0014 <s> I 0.0000
-6.0014 <s> IAS 0.0000
-5.5243 <s> IDLE 0.0000
-6.0014 <s> IF 0.0000
-6.0014 <s> IFR 0.0000
-6.0014 <s> IGNITE 0.0000
-6.0014 <s> ILLUMINATED 0.0000
-5.7003 <s> IN -0.1761
-6.0014 <s> INCHES 0.0000
-6.0014 <s> INCREASING 0.0000
-6.0014 <s> INIT 0.0000
-6.0014 <s> INOP 0.0000
-6.0014 <s> INOPERATIVE 0.0000
-6.0014 <s> INSTRUMENTS -0.2218
-6.0014 <s> INTERIOR 0.0000
-6.0014 <s> INTERNAL 0.0000
-6.0014 <s> IRS 0.0000
-6.0014 <s> KIAS 0.0000
-6.0014 <s> KILL 0.0000
-6.0014 <s> KNOTS 0.0000
-5.1563 <s> LANDING -0.0580
-6.0014 <s> LATERAL 0.0000
-6.0014 <s> LEAN 0.0000
-5.7003 <s> LEFT -0.1249
-6.0014 <s> LET 0.0000
-5.3993 <s> LET'S 0.0000
-5.5243 <s> LEVEL -0.1963
-6.0014 <s> LIGHTING 0.0000
-6.0014 <s> LIKE 0.0000
-5.5243 <s> LNAV 0.0000
-6.0014 <s> LOCALIZER 0.0000
-6.0014 <s> LOCKED 0.0000
-5.7003 <s> LOGO 0.0000
-6.0014 <s> LOOKING -0.2218
-6.0014 <s> LOUD 0.0000
-5.5243 <s> LOWER 0.0000
-6.0014 <s> MACH 0.0000
-6.0014 <s> MAKE 0.0000
-6.0014 <s> MANUAL 0.0000
-6.0014 <s> MARKER 0.0000
-6.0014 <s> MARKERS 0.0000
-5.7003 <s> MAX 0.0000
-5.7003 <s> MAXIMUM -0.1249
-6.0014 <s> MCP 0.0000
-6.0014 <s> MEAL 0.0000
-6.0014 <s> MINIMUMS 0.0000
-6.0014 <s> MINUS 0.0000
-6.0014 <s> MIXTURE 0.0000
-5.3993 <s> MUTE 0.0000
-6.0014 <s> N1 0.0000
-6.0014 <s> N2 0.0000
-6.0014 <s> NAUTICAL 0.0000
-5.3024 <s> NAV 0.0000
-5.7003 <s> NAVIGATION -0.2596
-6.0014 <s> NEGATIVE 0.0000
-6.0014 <s> NEXT 0.0000
-6.0014 <s> NINE -0.2956
-6.0014 <s> NINER 0.0000
-6.0014 <s> NINETEEN 0.0000
-6.0014 <s> NINETY -0.2684
-6.0014 <s> NON 0.0000
-6.0014 <s> NORMAL 0.0000
-6.0014 <s> NOTIFIED 0.0000
-6.0014 <s> NOTIFY 0.0000
-5.7003 <s> OBTAIN 0.0000
-5.5243 <s> OFF -0.1513
-6.0014 <s> OKAY 0.0000
-5.3993 <s> ON -0.1631
-6.0014 <s> ONE -0.2963
-5.3024 <s> OPEN 0.0000
-6.0014 <s> OPERATION 0.0000
-6.0014 <s> OUT 0.0000
-6.0014 <s> OXYGEN 0.0000
-6.0014 <s> P.A 0.0000
-6.0014 <s> PA 0.0000
-5.7003 <s> PARK 0.0000
-5.3993 <s> PARKING 0.0000
-5.7003 <s> PAUSE 0.0000
-6.0014 <s> PEDAL 0.0000
-5.3993 <s> PITOT 0.0000
-5.5243 <s> PLEASE 0.0000
-6.0014 <s> POINT 0.0000
-5.2232 <s> POSITION 0.0000
-6.0014 <s> POWER 0.0000
-6.0014 <s> PREFLIGHT 0.0000
-6.0014 <s> PROGRAMMED 0.0000
-6.0014 <s> PSI 0.0000
-6.0014 <s> PULL 0.0000
-6.0014 <s> PUMP 0.0000
-5.7003 <s> PUT 0.0000
-6.0014 <s> QNH 0.0000
-6.0014 <s> QUANTITIES 0.0000
-6.0014 <s> QUANTITY 0.0000
-6.0014 <s> QUIET 0.0000
-5.7003 <s> RADIAL 0.0000
-6.0014 <s> RADIOS 0.0000
-5.3993 <s> RAISE 0.0000
-5.0983 <s> READY 0.0000
-6.0014 <s> REAR -0.2218
-6.0014 <s> RECALL 0.0000
-6.0014 <s> RECORD 0.0000
-6.0014 <s> RED 0.0000
-6.0014 <s> REJECTED 0.0000
-6.0014 <s> RELEASE 0.0000
-6.0014 <s> RELEASED 0.0000
-6.0014 <s> REMOVE 0.0000
-5.7003 <s> REPEAT -0.0969
-6.0014 <s> REQUEST 0.0000
-5.7003 <s> RESUME 0.0000
-5.3024 <s> RETRACT 0.0000
-5.7003 <s> RETRACTED 0.0000
-5.7003 <s> REVERSE 0.0000
-6.0014 <s> REVIEW 0.0000
-6.0014 <s> REVIEWED 0.0000
-6.0014 <s> RICH 0.0000
-5.7003 <s> RIGHT -0.1249
-6.0014 <s> RISE 0.0000
-6.0014 <s> RISING 0.0000
-5.7003 <s> ROGER 0.0000
-6.0014 <s> ROLL 0.0000
-6.0014 <s> ROTATE -0.1761
-6.0014 <s> ROTATION -0.1761
-6.0014 <s> ROUTES 0.0000
-6.0014 <s> RPM 0.0000
-6.0014 <s> RTO 0.0000
-6.0014 <s> RUNWAY 0.0000
-5.3993 <s> SAY 0.0000
-6.0014 <s> SCHEDULE 0.0000
-6.0014 <s> SECONDS 0.0000
-5.7003 <s> SECURE 0.0000
-4.7709 <s> SELECT -0.0000
-6.0014 <s> SELECTED 0.0000
-6.0014 <s> SELECTOR 0.0000
-6.0014 <s> SERVE 0.0000
-0.5850 <s> SET -0.0000
-6.0014 <s> SETUP 0.0000
-6.0014 <s> SEVEN -0.2956
-6.0014 <s> SEVENTEEN 0.0000
-6.0014 <s> SEVENTY -0.2680
-5.5243 <s> SHUT 0.0000
-6.0014 <s> SID 0.0000
-6.0014 <s> SIGNAL 0.0000
-6.0014 <s> SIX -0.2956
-6.0014 <s> SIXTEEN 0.0000
-6.0014 <s> SIXTY -0.2680
-6.0014 <s> SORRY? 0.0000
-5.3993 <s> SPEED -0.0555
-6.0014 <s> SPEEDBRAKE 0.0000
-5.5243 <s> SPEEDBRAKES 0.0000
-6.0014 <s> SPOILERS 0.0000
-5.2232 <s> SQUAWK -0.0280
-6.0014 <s> STANDARD -0.0969
-5.5243 <s> STANDBY 0.0000
-6.0014 <s> STAR 0.0000
-4.8874 <s> START 0.0000
-5.7003 <s> STOP 0.0000
-6.0014 <s> STOWED 0.0000
-5.7003 <s> STROBE 0.0000
-5.7003 <s> SWITCH 0.0000
-6.0014 <s> SYNC 0.0000
-6.0014 <s> SYSTEM -0.1761
-6.0014 <s> TA 0.0000
-6.0014 <s> TA-RA 0.0000
-5.5243 <s> TAKEOFF -0.1996
-5.3024 <s> TAXI -0.0669
-6.0014 <s> TAXIWAY 0.0000
-5.2232 <s> TELL 0.0000
-6.0014 <s> TEN -0.3010
-6.0014 <s> TEST 0.0000
-6.0014 <s> THANK 0.0000
-6.0014 <s> THE -0.2871
-6.0014 <s> THEN 0.0000
-6.0014 <s> THIRTEEN 0.0000
-6.0014 <s> THIRTY -0.2705
-6.0014 <s> THOUSAND -0.1739
-6.0014 <s> THREE -0.2956
-5.3993 <s> THRUST -0.2430
-5.0983 <s> TOGGLE 0.0000
-5.7003 <s> TRANSITION 0.0000
-5.1563 <s> TRANSPONDER -0.3006
-6.0014 <s> TUBE 0.0000
-0.6212 <s> TUNE 0.0000
-6.0014 <s> TUNED 0.0000
-4.3293 <s> TURN 0.0000
-6.0014 <s> TURNOFF 0.0000
-6.0014 <s> TWELVE 0.0000
-6.0014 <s> TWENTY -0.2705
-6.0014 <s> TWO -0.2956
-6.0014 <s> UNIT 0.0000
-6.0014 <s> UNLOCKED 0.0000
-5.7003 <s> UP -0.2041
-6.0014 <s> V1 -0.1249
-6.0014 <s> V2 -0.1249
-5.7003 <s> VERIFY 0.0000
-5.7003 <s> VERTICAL 0.0000
-6.0014 <s> VFR -0.1249
-5.3993 <s> VNAV 0.0000
-6.0014 <s> VOR 0.0000
-6.0014 <s> WAT? 0.0000
-5.7003 <s> WE'RE 0.0000
-6.0014 <s> WEATHER -0.2218
-5.1563 <s> WHAT 0.0000
-5.1563 <s> WHAT'S 0.0000
-6.0014 <s> WHAT? 0.0000
-5.5243 <s> WING 0.0000
-6.0014 <s> WITHIN 0.0000
-6.0014 <s> WORKING 0.0000
-6.0014 <s> WUT? 0.0000
-6.0014 <s> YAW 0.0000
-6.0014 <s> ZERO -0.1962
-0.5229 A COUPLE 0.0000
-1.0000 A NOTCH 0.0000
-1.0000 A THOUSAND -0.1739
-0.3010 ABOARD </s> -0.3010
-0.3010 ADD </s> -0.3010
-0.3010 ADF1 </s> -0.3010
-0.3010 ADF2 </s> -0.3010
-0.3010 ADJUST </s> -0.3010
-0.3010 ADJUSTED </s> -0.3010
-0.3010 ADVISED </s> -0.3010
-0.3010 AFFIRMATIVE </s> -0.3010
-0.6021 AFTER LANDING -0.2906
-0.6021 AFTER TAKEOFF -0.2430
-0.3010 AGAIN </s> -0.3010
-0.3010 AIRCRAFT </s> -0.3010
-1.3424 ALL </s> -0.3010
-1.3424 ALL AUTO 0.0000
-1.3424 ALL AUTOMATIC 0.0000
-1.3424 ALL OFF -0.1563
-1.3424 ALL ON -0.1761
-0.5643 ALL THE -0.2891
-0.6021 ALT </s> -0.3010
-0.6021 ALT HOLD -0.1549
-0.3010 ALTERNATE </s> -0.3010
-4.0002 ALTIMETER </s> -0.3010
-1.3012 ALTIMETER EIGHT -0.0179
-1.3012 ALTIMETER FIVE -0.0179
-1.3012 ALTIMETER FOUR -0.0179
-1.3012 ALTIMETER NINE -0.0179
-1.3012 ALTIMETER ONE -0.0154
-1.3012 ALTIMETER SEVEN -0.0179
-1.3012 ALTIMETER SIX -0.0179
-4.3012 ALTIMETER STANDARD -0.0969
-1.3012 ALTIMETER THREE -0.0179
-4.0002 ALTIMETER TO -0.1303
-1.3012 ALTIMETER TWO -0.0179
-1.3012 ALTIMETER ZERO -0.1562
-2.4850 ALTITUDE </s> -0.3010
-2.7860 ALTITUDE BUG -0.1249
-1.3089 ALTITUDE EIGHTY -0.1032
-1.3089 ALTITUDE FIFTY -0.1001
-1.3089 ALTITUDE FORTY -0.1001
-2.4850 ALTITUDE HOLD -0.1091
-1.3089 ALTITUDE NINETY -0.1062
-1.3089 ALTITUDE SEVENTY -0.1032
-1.3089 ALTITUDE SIXTY -0.1032
-1.3089 ALTITUDE TEN -0.0002
-1.3089 ALTITUDE THIRTY -0.1001
-3.0871 ALTITUDE TO -0.1461
-1.3089 ALTITUDE TWENTY -0.1001
-1.3089 ALTITUDE ZERO -0.1562
-1.2553 AND CHECKED -0.0669
-1.2553 AND CLOSED -0.1761
-1.2553 AND CORRECT 0.0000
-0.9542 AND LOCKED 0.0000
-1.2553 AND OFF -0.1563
-1.2553 AND ON -0.1761
-0.9542 AND SET -0.3010
-0.3010 ANNOUNCED </s> -0.3010
-0.3010 APP </s> -0.3010
-0.6021 APPROACH </s> -0.3010
-0.6021 APPROACH CHECKLIST -0.0458
-0.3882 APU </s> -0.3010
-1.3424 APU BLEED 0.0000
-1.3424 APU GENERATORS 0.0000
-0.3010 ARE </s> -0.3010
-1.0000 ARM </s> -0.3010
-1.3010 ARM AUTOTHROTTLE -0.1249
-1.3010 ARM LOCALIZER 0.0000
-1.3010 ARM SPEEDBRAKES -0.0872
-0.6021 ARM THE -0.2810
-0.3010 ARMED </s> -0.3010
-0.4771 AROUND </s> -0.3010
-0.7782 AROUND CHECKLIST -0.0458
-0.9031 AS DESIRED 0.0000
-0.9031 AS NEEDED 0.0000
-0.6021 AS REQUIRED 0.0000
-0.3010 AT MAX -0.1249
-0.9031 ATTENDANT </s> -0.3010
-0.9031 ATTENDANT TO -0.2788
-0.6021 ATTENDANT WE'RE 0.0000
-0.3010 AUDIBLY </s> -0.3010
-0.3010 AUTO </s> -0.3010
-0.3010 AUTOBRAKE </s> -0.3010
-0.3010 AUTOMATIC </s> -0.3010
-0.5229 AUTOPILOT </s> -0.3010
-1.3010 AUTOPILOT CONNECT -0.1761
-1.3010 AUTOPILOT DISCONNECT -0.2218
-1.3010 AUTOPILOT OFF -0.1563
-1.3010 AUTOPILOT ON -0.1761
-0.4771 AUTOTHROTTLE </s> -0.3010
-1.0792 AUTOTHROTTLE OFF -0.1563
-1.0792 AUTOTHROTTLE ON -0.1761
-0.3010 AUTOTHROTTLES </s> -0.3010
-0.3010 AUXILIARY </s> -0.3010
-0.3010 AVAILABLE </s> -0.3010
-0.3010 AVIONICS </s> -0.3010
-0.8451 BACK </s> -0.3010
-0.8451 BACK COURSE -0.2218
-0.6690 BACK TO -0.2672
-0.6021 BARO </s> -0.3010
-0.6021 BARO REF 0.0000
-0.3010 BAROMETER </s> -0.3010
-0.3010 BASICS </s> -0.3010
-0.3010 BATTERIES </s> -0.3010
-0.3010 BATTERY </s> -0.3010
-1.2553 BEACON LIGHT -0.1091
-0.3522 BEACON LIGHTS -0.0189
-0.7782 BEFORE START -0.2730
-0.7782 BEFORE TAKEOFF -0.2430
-0.7782 BEFORE TAXI -0.2632
-0.3010 BEGINNING </s> -0.3010
-0.3010 BELLY LANDING -0.2798
-0.3010 BELTS </s> -0.3010
-0.3010 BLEED </s> -0.3010
-0.3010 BLEEDS </s> -0.3010
-0.3010 BOARDING </s> -0.3010
-0.6021 BOTH OFF -0.1563
-0.6021 BOTH ON -0.1761
-0.6021 BRAKE OFF -0.1563
-0.6021 BRAKE ON -0.1761
-0.7782 BRAKES </s> -0.3010
-0.7782 BRAKES OFF -0.1563
-0.7782 BRAKES ON -0.1761
-0.3010 BRAKING </s> -0.3010
-0.3010 BREAKERS </s> -0.3010
-0.3010 BRIGHT </s> -0.3010
-0.6021 BRIGHTEN INSTRUMENTS -0.1249
-0.6021 BRIGHTEN THE -0.2991
-0.7782 BUG </s> -0.3010
-0.4771 BUG TO -0.1461
-0.3010 BULB </s> -0.3010
-0.6021 BY </s> -0.3010
-0.6021 BY ONE -0.2963
-0.3010 C </s> -0.3010
-0.9031 CABIN </s> -0.3010
-0.9031 CABIN LIGHTING 0.0000
-0.6021 CABIN TEMPERATURE 0.0000
-0.3010 CALCULATED </s> -0.3010
-0.3010 CAN WE 0.0000
-0.3010 CANCEL LANDING -0.2798
-0.3010 CAPTURE </s> -0.3010
-0.3010 CDU </s> -0.3010
-1.1461 CHANGE </s> -0.3010
-1.1461 CHANGE ADF1 0.0000
-1.1461 CHANGE ADF2 0.0000
-1.1461 CHANGE COM1 -0.3010
-1.1461 CHANGE COM2 -0.3010
-0.8451 CHANGE MODE -0.2341
-0.3010 CHARLIE </s> -0.3010
-0.3010 CHARTS </s> -0.3010
-0.7782 CHECK </s> -0.3010
-1.2553 CHECK ALTIMETER -0.3010
-1.2553 CHECK AND -0.2499
-1.2553 CHECK CONDITION 0.0000
-1.2553 CHECK LANDING -0.2798
-1.2553 CHECK QUANTITY 0.0000
-1.2553 CHECK VISUALLY 0.0000
-0.3802 CHECKED </s> -0.3010
-1.0792 CHECKED AND -0.2499
-0.3522 CHECKLIST </s> -0.3010
-1.7324 CHECKLIST LATER 0.0000
-1.4314 CHECKLIST LATER? 0.0000
-0.3010 CHECKS CHECKLIST -0.0458
-0.3010 CIRCUIT BREAKERS 0.0000
-0.3010 CLEAR </s> -0.3010
-0.3010 CLEARANCE </s> -0.3010
-0.6021 CLIMB </s> -0.3010
-0.6021 CLIMB THRUST -0.1576
-0.6021 CLOSED </s> -0.3010
-0.6021 CLOSED AND -0.2499
-0.3010 COLD </s> -0.3010
-4.9823 COM1 </s> -0.3010
-1.3010 COM1 EIGHT -0.0179
-1.3010 COM1 FIVE -0.0179
-1.3010 COM1 FOUR -0.0179
-1.3010 COM1 NINE -0.0179
-1.3010 COM1 ONE -0.0154
-1.3010 COM1 SEVEN -0.0179
-1.3010 COM1 SIX -0.0179
-1.3010 COM1 THREE -0.0179
-1.3010 COM1 TWO -0.0179
-1.3010 COM1 ZERO -0.1562
-4.9823 COM2 </s> -0.3010
-1.3010 COM2 EIGHT -0.0179
-1.3010 COM2 FIVE -0.0179
-1.3010 COM2 FOUR -0.0179
-1.3010 COM2 NINE -0.0179
-1.3010 COM2 ONE -0.0154
-1.3010 COM2 SEVEN -0.0179
-1.3010 COM2 SIX -0.0179
-1.3010 COM2 THREE -0.0179
-1.3010 COM2 TWO -0.0179
-1.3010 COM2 ZERO -0.1562
-0.6021 COMMUNICATIONS 1 0.0000
-0.6021 COMMUNICATIONS 2 0.0000
-0.3010 COMPLETE </s> -0.3010
-0.3010 COMPLETED </s> -0.3010
-0.3010 CONDITION </s> -0.3010
-0.3010 CONDUCT </s> -0.3010
-0.3010 CONDUCTED </s> -0.3010
-0.3010 CONFIGURED </s> -0.3010
-0.3010 CONFIRM </s> -0.3010
-0.6021 CONNECT </s> -0.3010
-0.6021 CONNECT AUTOPILOT -0.1461
-0.3010 CONTINUOUS </s> -0.3010
-0.3010 CORRECT </s> -0.3010
-0.3010 COULD YOU -0.2218
-0.3010 COULDN'T HEAR 0.0000
-0.4771 COUPLE </s> -0.3010
-0.7782 COUPLE THOUSAND -0.1739
-0.4771 COURSE </s> -0.3010
-1.0792 COURSE SID 0.0000
-1.0792 COURSE STAR 0.0000
-0.3010 CREW WE'RE 0.0000
-0.3010 CROSS CHECKED -0.0669
-0.3010 CROSSCHECK </s> -0.3010
-0.3010 CRUISE </s> -0.3010
-0.3010 CUTOFF </s> -0.3010
-0.3010 CUTOUT </s> -0.3010
-0.3010 DAMPER </s> -0.3010
-0.3010 DARK </s> -0.3010
-0.3010 DECIMAL </s> -0.3010
-0.3010 DECREASING </s> -0.3010
-0.3010 DEGREES </s> -0.3010
-0.3010 DEPARTURE </s> -0.3010
-0.3010 DESCENT CHECKLIST -0.0458
-0.6021 DESELECT HEADING -0.2957
-0.9031 DESELECT SPEED -0.2258
-0.9031 DESELECT VERTICAL -0.1549
-0.3010 DESIRED </s> -0.3010
-0.3010 DETENT </s> -0.3010
-0.3010 DIFF </s> -0.3010
-0.3010 DIFFERENTIAL </s> -0.3010
-0.7782 DIRECTOR </s> -0.3010
-0.7782 DIRECTOR OFF -0.1563
-0.7782 DIRECTOR ON -0.1761
-0.6021 DIRECTORS OFF -0.1563
-0.6021 DIRECTORS ON -0.1761
-1.0000 DISABLE </s> -0.3010
-0.5229 DISABLE THE -0.2810
-1.0000 DISABLE TRANSPONDER -0.3008
-0.3010 DISABLED </s> -0.3010
-1.0000 DISARM AUTOTHROTTLE -0.1249
-1.0000 DISARM SPEEDBRAKES -0.0872
-0.5229 DISARM THE -0.2891
-0.3010 DISARMED </s> -0.3010
-0.3010 DISC </s> -0.3010
-0.7782 DISCONNECT </s> -0.3010
-1.0792 DISCONNECT AUTOPILOT -0.1461
-1.0792 DISCONNECT EXTERNAL -0.1249
-1.0792 DISCONNECT GROUND -0.1249
-1.0792 DISCONNECT THE -0.2951
-0.3010 DISCONNECTED </s> -0.3010
-0.7782 DISENGAGE </s> -0.3010
-1.0792 DISENGAGE BEACON -0.0458
-1.0792 DISENGAGE REVERSE 0.0000
-0.7782 DISENGAGE THE -0.2871
-0.6021 DO THE -0.2891
-0.6021 DO THIS -0.1249
-0.3010 DOOR </s> -0.3010
-0.3010 DOORS </s> -0.3010
-0.5229 DOWN </s> -0.3010
-1.3010 DOWN AND -0.2762
-1.3010 DOWN CHECKLIST -0.0458
-1.3010 DOWN ENGINE -0.0792
-1.3010 DOWN THE -0.2891
-0.3010 DROPPING </s> -0.3010
-0.6021 DUE EAST 0.0000
-0.9031 DUE SOUTH 0.0000
-0.9031 DUE WEST 0.0000
-0.3010 EAST </s> -0.3010
-0.3010 ECAM </s> -0.3010
-0.3010 EFIS </s> -0.3010
-1.9024 EIGHT </s> -0.3010
-1.4026 EIGHT EIGHT -0.0001
-5.3804 EIGHT EIGHTY -0.2385
-4.6814 EIGHT FEET 0.0000
-5.3804 EIGHT FIFTY -0.2407
-1.4026 EIGHT FIVE -0.0001
-5.3804 EIGHT FORTY -0.2407
-1.4026 EIGHT FOUR -0.0001
-4.3804 EIGHT HUNDRED 0.0000
-1.4026 EIGHT NINE -0.0001
-5.3804 EIGHT NINETY -0.2363
-1.3197 EIGHT ONE -0.0001
-1.4026 EIGHT SEVEN -0.0001
-5.3804 EIGHT SEVENTY -0.2385
-1.4026 EIGHT SIX -0.0001
-5.3804 EIGHT SIXTY -0.2385
-2.0791 EIGHT TEN -0.0006
-5.3804 EIGHT THIRTY -0.2407
-4.3804 EIGHT THOUSAND 0.0000
-1.4026 EIGHT THREE -0.0001
-5.3804 EIGHT TWENTY -0.2407
-1.4026 EIGHT TWO -0.0001
-0.9410 EIGHT ZERO -0.0000
-0.3010 EIGHTEEN </s> -0.3010
-1.1357 EIGHTY </s> -0.3010
-1.2148 EIGHTY DEGREES 0.0000
-1.4367 EIGHTY EIGHT -0.2955
-1.4367 EIGHTY FIVE -0.2955
-1.4367 EIGHTY FOUR -0.2955
-1.4367 EIGHTY NINE -0.2955
-1.4367 EIGHTY ONE -0.2963
-1.4367 EIGHTY SEVEN -0.2955
-1.4367 EIGHTY SIX -0.2955
-1.4367 EIGHTY THREE -0.2955
-1.4367 EIGHTY TWO -0.2955
-1.4367 EIGHTY ZERO -0.1962
-0.3010 ELECTRICAL </s> -0.3010
-0.3010 ELEVEN </s> -0.3010
-0.3010 EMERGENCY </s> -0.3010
-0.7782 ENABLE </s> -0.3010
-0.7782 ENABLE THE -0.2871
-0.7782 ENABLE TRANSPONDER -0.3008
-0.3010 ENABLED </s> -0.3010
-0.6990 ENGAGE </s> -0.3010
-1.0000 ENGAGE BEACON -0.0458
-1.0000 ENGAGE REVERSE 0.0000
-1.0000 ENGAGE THE -0.2931
-0.3979 ENGINE </s> -0.3010
-1.0000 ENGINE NUMBER 0.0000
-0.3010 ENGINES </s> -0.3010
-0.3010 ENTIRELY </s> -0.3010
-0.3010 EUROPE </s> -0.3010
-0.6021 EUROPEAN </s> -0.3010
-0.6021 EUROPEAN VFR -0.1249
-0.3010 EVACUATE </s> -0.3010
-0.3010 EVACUATION </s> -0.3010
-0.3010 EXECUTE </s> -0.3010
-0.7782 EXTEND </s> -0.3010
-0.7782 EXTEND GEAR -0.1091
-0.7782 EXTEND THE -0.2871
-0.3010 EXTENDED </s> -0.3010
-0.3010 EXTERIOR </s> -0.3010
-0.7782 EXTERNAL </s> -0.3010
-0.4771 EXTERNAL POWER 0.0000
-0.3010 EXTINGUISHED </s> -0.3010
-0.3010 FAILURE </s> -0.3010
-0.3010 FASTEN BELTS 0.0000
-0.3010 FASTENED </s> -0.3010
-0.3010 FAULT </s> -0.3010
-0.3010 FEET </s> -0.3010
-0.3010 FIFTEEN </s> -0.3010
-1.1681 FIFTY </s> -0.3010
-1.2095 FIFTY DEGREES 0.0000
-1.4314 FIFTY EIGHT -0.2955
-1.4314 FIFTY FIVE -0.2955
-1.4314 FIFTY FOUR -0.2955
-1.4314 FIFTY NINE -0.2955
-1.4314 FIFTY ONE -0.2963
-1.4314 FIFTY SEVEN -0.2955
-1.4314 FIFTY SIX -0.2955
-1.4314 FIFTY THREE -0.2955
-1.4314 FIFTY TWO -0.2955
-1.4314 FIFTY ZERO -0.1962
-0.3010 FIRE </s> -0.3010
-1.9024 FIVE </s> -0.3010
-1.4026 FIVE EIGHT -0.0001
-5.3804 FIVE EIGHTY -0.2385
-4.6814 FIVE FEET 0.0000
-5.3804 FIVE FIFTY -0.2407
-1.4026 FIVE FIVE -0.0001
-5.3804 FIVE FORTY -0.2407
-1.4026 FIVE FOUR -0.0001
-4.3804 FIVE HUNDRED 0.0000
-1.4026 FIVE NINE -0.0001
-5.3804 FIVE NINETY -0.2363
-1.3197 FIVE ONE -0.0001
-1.4026 FIVE SEVEN -0.0001
-5.3804 FIVE SEVENTY -0.2385
-1.4026 FIVE SIX -0.0001
-5.3804 FIVE SIXTY -0.2385
-2.0791 FIVE TEN -0.0006
-5.3804 FIVE THIRTY -0.2407
-4.3804 FIVE THOUSAND 0.0000
-1.4026 FIVE THREE -0.0001
-5.3804 FIVE TWENTY -0.2407
-1.4026 FIVE TWO -0.0001
-0.9410 FIVE ZERO -0.0000
-0.3010 FIXED </s> -0.3010
-1.1461 FLAPS </s> -0.3010
-1.1461 FLAPS DOWN -0.1461
-0.4472 FLAPS UP -0.0212
-0.6021 FLARE </s> -0.3010
-0.6021 FLARE ARMED 0.0000
-0.7782 FLIGHT ATTENDANT 0.0000
-0.9031 FLIGHT DIRECTOR 0.0000
-1.0792 FLIGHT DIRECTORS 0.0000
-0.9031 FLIGHT LEVEL -0.1549
-1.3802 FLIP COM1 -0.3010
-1.3802 FLIP COM2 -0.3010
-1.3802 FLIP NAV1 0.0000
-1.3802 FLIP NAV2 0.0000
-0.9031 FLIP OFF -0.2389
-0.6812 FLIP ON -0.2282
-0.3010 FLOW </s> -0.3010
-0.3010 FMS </s> -0.3010
-1.0414 FOR BOARDING 0.0000
-1.3424 FOR CRUISE 0.0000
-1.3424 FOR DEPARTURE 0.0000
-1.0414 FOR PUSHBACK 0.0000
-0.7404 FOR TAKEOFF -0.1996
-1.3424 FOR TAXI -0.2632
-0.7782 FORGET IT 0.0000
-0.7782 FORGET THE -0.2891
-0.7782 FORGET THIS -0.2632
-1.1681 FORTY </s> -0.3010
-1.2095 FORTY DEGREES 0.0000
-1.4314 FORTY EIGHT -0.2955
-1.4314 FORTY FIVE -0.2955
-1.4314 FORTY FOUR -0.2955
-1.4314 FORTY NINE -0.2955
-1.4314 FORTY ONE -0.2963
-1.4314 FORTY SEVEN -0.2955
-1.4314 FORTY SIX -0.2955
-1.4314 FORTY THREE -0.2955
-1.4314 FORTY TWO -0.2955
-1.4314 FORTY ZERO -0.1962
-0.3010 FORWARD </s> -0.3010
-1.9024 FOUR </s> -0.3010
-1.4026 FOUR EIGHT -0.0001
-5.3804 FOUR EIGHTY -0.2385
-4.6814 FOUR FEET 0.0000
-5.3804 FOUR FIFTY -0.2407
-1.4026 FOUR FIVE -0.0001
-5.3804 FOUR FORTY -0.2407
-1.4026 FOUR FOUR -0.0001
-4.3804 FOUR HUNDRED 0.0000
-1.4026 FOUR NINE -0.0001
-5.3804 FOUR NINETY -0.2363
-1.3197 FOUR ONE -0.0001
-1.4026 FOUR SEVEN -0.0001
-5.3804 FOUR SEVENTY -0.2385
-1.4026 FOUR SIX -0.0001
-5.3804 FOUR SIXTY -0.2385
-2.0791 FOUR TEN -0.0006
-5.3804 FOUR THIRTY -0.2407
-4.3804 FOUR THOUSAND 0.0000
-1.4026 FOUR THREE -0.0001
-5.3804 FOUR TWENTY -0.2407
-1.4026 FOUR TWO -0.0001
-0.9410 FOUR ZERO -0.0000
-0.3010 FOURTEEN </s> -0.3010
-0.6021 FREE </s> -0.3010
-0.6021 FREE AND -0.2762
-0.3010 FREQUENCY </s> -0.3010
-0.6021 FRONT LEFT -0.2218
-0.6021 FRONT RIGHT -0.2218
-0.3010 FUEL </s> -0.3010
-0.6021 FULL LEFT -0.2218
-0.6021 FULL RIGHT -0.2218
-0.3010 GAUGES </s> -0.3010
-0.4472 GEAR </s> -0.3010
-1.1461 GEAR DOWN -0.1461
-1.1461 GEAR UP -0.2041
-0.3010 GEN </s> -0.3010
-0.3010 GENERATORS </s> -0.3010
-0.3010 GLIDESLOPE </s> -0.3010
-1.0792 GO </s> -0.3010
-0.6021 GO AROUND 0.0000
-0.7782 GO OVER -0.1249
-0.3010 GO-AROUND </s> -0.3010
-0.3010 GOT THAT -0.1249
-0.3010 GPWS </s> -0.3010
-0.6021 GREEN </s> -0.3010
-0.6021 GREEN LIGHT -0.1091
-0.7782 GROUND </s> -0.3010
-0.4771 GROUND POWER 0.0000
-0.3010 GUARD </s> -0.3010
-0.3010 HAM? </s> -0.3010
-2.3139 HEADING </s> -0.3010
-2.0128 HEADING DUE 0.0000
-1.3596 HEADING EIGHT -0.2974
-1.3596 HEADING FIVE -0.2974
-1.3596 HEADING FOUR -0.2974
-2.3139 HEADING HOLD -0.1549
-1.3361 HEADING NINE -0.2441
-2.3139 HEADING NINETY -0.2363
-1.2927 HEADING ONE -0.2779
-1.9159 HEADING SELECT -0.2258
-1.3596 HEADING SEVEN -0.2974
-1.3596 HEADING SIX -0.2974
-1.2927 HEADING THREE -0.2739
-2.6149 HEADING TO -0.1461
-1.2927 HEADING TWO -0.2739
-1.3596 HEADING ZERO -0.3002
-0.3010 HEAR YOU -0.1249
-0.4472 HEAT </s> -0.3010
-1.1461 HEAT OFF -0.1563
-1.1461 HEAT ON -0.1761
-0.3010 HEATER </s> -0.3010
-0.3010 HECTOPASCALS </s> -0.3010
-0.3010 HEM? </s> -0.3010
-0.7782 HNAV </s> -0.3010
-0.7782 HNAV OFF -0.1563
-0.7782 HNAV ON -0.1761
-0.5441 HOLD </s> -0.3010
-1.4472 HOLD OFF -0.1563
-1.4472 HOLD ON -0.1761
-1.4472 HOLD REVERSE 0.0000
-1.4472 HOLD THE -0.2891
-1.4472 HOLD THIS -0.1249
-1.4472 HOLD TO -0.1461
-0.9031 HORIZONTAL </s> -0.3010
-0.4260 HORIZONTAL NAVIGATION -0.0726
-0.3010 HOW IS -0.1761
-0.3010 HOW'S THE -0.2951
-0.3010 HUM? </s> -0.3010
-0.5999 HUNDRED </s> -0.3010
-0.6042 HUNDRED FEET 0.0000
-0.3010 HYDRAULIC </s> -0.3010
-0.3010 I COULDN'T 0.0000
-0.3010 IAS </s> -0.3010
-0.3010 IDENT </s> -0.3010
-0.3010 IDENTIFY </s> -0.3010
-0.3010 IDLE </s> -0.3010
-0.3010 IF REQUIRED 0.0000
-0.3010 IFR </s> -0.3010
-0.3010 IGNITE </s> -0.3010
-0.3010 ILLUMINATED </s> -0.3010
-0.6021 IN </s> -0.3010
-0.9031 IN CDU 0.0000
-0.9031 IN EUROPE 0.0000
-0.3010 INCHES OF 0.0000
-0.3010 INCREASING </s> -0.3010
-0.3010 INIT REF 0.0000
-0.3010 INOP </s> -0.3010
-0.3010 INOPERATIVE </s> -0.3010
-0.4771 INSTRUMENTS </s> -0.3010
-0.7782 INSTRUMENTS TOO 0.0000
-0.3010 INTERCEPT </s> -0.3010
-0.3010 INTERCEPTOR </s> -0.3010
-0.3010 INTERIOR </s> -0.3010
-0.3010 INTERNAL </s> -0.3010
-0.4472 INTERVENTION </s> -0.3010
-1.1461 INTERVENTION OFF -0.1563
-1.1461 INTERVENTION ON -0.1761
-0.3010 IRS </s> -0.3010
-1.2041 IS ROTATE -0.1761
-1.2041 IS ROTATION -0.1761
-0.6021 IS THE -0.2871
-1.2041 IS V1? 0.0000
-1.2041 IS V2? 0.0000
-0.3010 IT </s> -0.3010
-0.3010 KIAS </s> -0.3010
-0.3010 KILL ENGINE -0.0792
-0.3010 KNOTS </s> -0.3010
-0.3010 KNOW </s> -0.3010
-1.3222 LANDING </s> -0.3010
-1.6232 LANDING ALT -0.1761
-1.3222 LANDING ALTITUDE -0.2996
-1.6232 LANDING CHECKLIST -0.0458
-0.7202 LANDING LIGHT 0.0000
-0.7782 LANDING LIGHTS -0.0189
-0.3010 LAST </s> -0.3010
-0.3010 LATER </s> -0.3010
-0.3010 LATER? </s> -0.3010
-0.3010 LATERAL NAVIGATION -0.0726
-0.3010 LEAN </s> -0.3010
-0.7782 LEFT </s> -0.3010
-0.7782 LEFT DOOR 0.0000
-0.7782 LEFT PACK 0.0000
-0.3010 LET ME -0.2218
-0.6021 LET'S GO -0.2218
-0.9031 LET'S PUSHBACK 0.0000
-0.9031 LET'S START -0.2730
-0.6690 LEVEL </s> -0.3010
-0.6690 LEVEL CHANGE -0.1963
-1.1461 LEVEL TO -0.1461
-0.4472 LIGHT </s> -0.3010
-1.1461 LIGHT OFF -0.1563
-1.1461 LIGHT ON -0.1761
-0.3010 LIGHTING </s> -0.3010
-0.5071 LIGHTS </s> -0.3010
-1.9542 LIGHTS DISENGAGE -0.2218
-1.9542 LIGHTS ENGAGE -0.2041
-1.1091 LIGHTS OFF -0.1563
-1.0512 LIGHTS ON -0.1761
-0.3010 LIKE </s> -0.3010
-0.3010 LIKE? </s> -0.3010
-0.6021 LNAV </s> -0.3010
-0.9031 LNAV OFF -0.1563
-0.9031 LNAV ON -0.1761
-0.3010 LOCALIZER </s> -0.3010
-0.3010 LOCKED </s> -0.3010
-1.0792 LOGO </s> -0.3010
-0.3802 LOGO LIGHTS -0.0792
-0.7782 LOOKING </s> -0.3010
-0.4771 LOOKING LIKE? 0.0000
-0.3010 LOUD </s> -0.3010
-0.7782 LOWER GEAR -0.1091
-0.7782 LOWER ON -0.2978
-0.7782 LOWER THE -0.2871
-0.3010 MACH </s> -0.3010
-0.3010 MAKE </s> -0.3010
-0.3010 MANUAL BRAKING 0.0000
-0.3010 MARKER </s> -0.3010
-0.3010 MARKERS </s> -0.3010
-0.4771 MAX </s> -0.3010
-0.7782 MAX REVERSE 0.0000
-0.7782 MAXIMUM BRAKING 0.0000
-0.7782 MAXIMUM REVERSE 0.0000
-0.7782 MAXIMUM THRUST -0.1576
-0.3010 MCP </s> -0.3010
-0.7782 ME KNOW 0.0000
-0.7782 ME V1 -0.1249
-0.7782 ME V2 -0.1249
-0.3010 MEAL TIME 0.0000
-0.3010 MEALS </s> -0.3010
-0.3010 MERCURY </s> -0.3010
-0.3010 MILES </s> -0.3010
-0.4771 MILITARY INTERCEPT 0.0000
-0.7782 MILITARY INTERCEPTOR 0.0000
-0.3010 MINIMUMS </s> -0.3010
-0.3010 MINUS </s> -0.3010
-0.3010 MIXTURE </s> -0.3010
-0.8451 MODE C 0.0000
-0.6690 MODE CHARLIE 0.0000
-1.1461 MODE OFF -0.1563
-1.1461 MODE ON -0.1761
-0.9031 MUTE ADF1 0.0000
-0.9031 MUTE ADF2 0.0000
-0.9031 MUTE COM1 -0.3010
-0.9031 MUTE COM2 -0.3010
-0.3010 MY SIDE 0.0000
-0.3010 N1 </s> -0.3010
-0.3010 N2 </s> -0.3010
-0.3010 NAUTICAL MILES 0.0000
-1.4150 NAV </s> -0.3010
-0.6368 NAV LIGHT 0.0000
-0.6368 NAV LIGHTS -0.0189
-0.3010 NAV1 </s> -0.3010
-0.3010 NAV2 </s> -0.3010
-0.3882 NAVIGATION </s> -0.3010
-1.0414 NAVIGATION LIGHTS -0.2218
-0.3010 NEEDED </s> -0.3010
-0.3010 NEGATIVE </s> -0.3010
-0.3010 NEXT </s> -0.3010
-1.9024 NINE </s> -0.3010
-1.4026 NINE EIGHT -0.0001
-5.3804 NINE EIGHTY -0.2385
-4.6814 NINE FEET 0.0000
-5.3804 NINE FIFTY -0.2407
-1.4026 NINE FIVE -0.0001
-5.3804 NINE FORTY -0.2407
-1.4026 NINE FOUR -0.0001
-4.3804 NINE HUNDRED 0.0000
-1.4026 NINE NINE -0.0001
-5.3804 NINE NINETY -0.2363
-1.3197 NINE ONE -0.0001
-1.4026 NINE SEVEN -0.0001
-5.3804 NINE SEVENTY -0.2385
-1.4026 NINE SIX -0.0001
-5.3804 NINE SIXTY -0.2385
-2.0791 NINE TEN -0.0006
-5.3804 NINE THIRTY -0.2407
-4.3804 NINE THOUSAND 0.0000
-1.4026 NINE THREE -0.0001
-5.3804 NINE TWENTY -0.2407
-1.4026 NINE TWO -0.0001
-0.9410 NINE ZERO -0.0000
-0.3010 NINER </s> -0.3010
-0.3010 NINETEEN </s> -0.3010
-1.1409 NINETY </s> -0.3010
-1.1787 NINETY DEGREES 0.0000
-1.4420 NINETY EIGHT -0.2955
-1.4420 NINETY FIVE -0.2955
-1.4420 NINETY FOUR -0.2955
-1.4420 NINETY NINE -0.2955
-1.4420 NINETY ONE -0.2963
-1.4420 NINETY SEVEN -0.2955
-1.4420 NINETY SIX -0.2955
-1.4420 NINETY THREE -0.2955
-1.4420 NINETY TWO -0.2955
-1.4420 NINETY ZERO -0.1962
-0.3010 NON NORMAL 0.0000
-0.3010 NORMAL </s> -0.3010
-0.3010 NOTCH </s> -0.3010
-0.3010 NOTIFIED </s> -0.3010
-0.3010 NOTIFY </s> -0.3010
-0.3010 NUMBER </s> -0.3010
-0.6021 OBTAIN </s> -0.3010
-0.6021 OBTAIN CLEARANCE 0.0000
-0.3010 OF MERCURY 0.0000
-0.5477 OFF </s> -0.3010
-2.0792 OFF APU -0.0726
-2.0792 OFF AVIONICS 0.0000
-2.0792 OFF HORIZONTAL -0.0969
-2.0792 OFF LATERAL 0.0000
-2.0792 OFF PITOT -0.0512
-2.0792 OFF SPEED -0.2258
-2.0792 OFF SPEEDBRAKES -0.0872
-2.0792 OFF TAXI -0.1249
-0.8751 OFF THE -0.1877
-2.0792 OFF VERTICAL -0.1963
-2.0792 OFF WING -0.0580
-0.3010 OKAY THANKS 0.0000
-0.6021 ON </s> -0.3010
-2.1335 ON APU -0.0726
-2.1335 ON AVIONICS 0.0000
-2.1335 ON HORIZONTAL -0.0969
-2.1335 ON LATERAL 0.0000
-2.1335 ON MY 0.0000
-2.1335 ON PITOT -0.0512
-2.1335 ON SCHEDULE 0.0000
-2.1335 ON SPEED -0.2258
-2.1335 ON SPEEDBRAKES -0.0872
-2.1335 ON TAXI -0.1249
-0.8113 ON THE -0.1902
-2.1335 ON VERTICAL -0.1963
-2.1335 ON WING -0.0580
-2.1335 ON YOUR 0.0000
-1.9692 ONE </s> -0.3010
-1.4695 ONE EIGHT -0.0001
-5.2712 ONE EIGHTY -0.2385
-4.7483 ONE FEET 0.0000
-5.4473 ONE FIFTY -0.2407
-1.4696 ONE FIVE -0.0001
-5.4473 ONE FORTY -0.2407
-1.4696 ONE FOUR -0.0001
-4.4473 ONE HUNDRED 0.0000
-1.4696 ONE NINE -0.0001
-5.4473 ONE NINETY -0.2363
-1.3866 ONE ONE -0.0001
-1.4696 ONE SEVEN -0.0001
-5.4473 ONE SEVENTY -0.2385
-1.4696 ONE SIX -0.0001
-5.4473 ONE SIXTY -0.2385
-2.1460 ONE TEN -0.0006
-5.4473 ONE THIRTY -0.2407
-4.4473 ONE THOUSAND 0.0000
-1.4696 ONE THREE -0.0001
-5.4473 ONE TWENTY -0.2407
-1.4696 ONE TWO -0.0001
-0.7706 ONE ZERO -0.0000
-1.0000 OPEN ALL -0.1627
-0.6990 OPEN FRONT 0.0000
-0.6990 OPEN REAR -0.1249
-0.3010 OPERATION </s> -0.3010
-0.3010 OUT </s> -0.3010
-0.7782 OVER </s> -0.3010
-0.7782 OVER THE -0.2891
-0.7782 OVER THIS -0.2632
-0.3010 OXYGEN </s> -0.3010
-0.3010 P.A </s> -0.3010
-0.3010 PA SYSTEM -0.1761
-0.3010 PACK </s> -0.3010
-0.3010 PARK </s> -0.3010
-0.6021 PARKING BRAKE 0.0000
-0.6021 PARKING BRAKES -0.1249
-0.3010 PATH </s> -0.3010
-0.6021 PAUSE THE -0.2891
-0.6021 PAUSE THIS -0.1249
-0.3010 PEDAL </s> -0.3010
-0.3590 PITOT HEAT 0.0000
-1.2041 PITOT HEATER 0.0000
-0.4771 PLEASE DISCONNECT -0.2218
-0.7782 PLEASE REPEAT -0.1761
-0.3010 POINT </s> -0.3010
-1.0792 POSITION </s> -0.3010
-0.7782 POSITION LIGHT -0.2341
-0.6021 POSITION LIGHTS -0.0189
-0.3010 POWER </s> -0.3010
-0.3010 PREFLIGHT CHECKLIST -0.0458
-0.3010 PRESSURE </s> -0.3010
-0.3010 PROGRAMMED </s> -0.3010
-0.3010 PROPS </s> -0.3010
-0.3010 PSI </s> -0.3010
-0.3010 PULL </s> -0.3010
-0.3010 PUMP </s> -0.3010
-0.3010 PUSHBACK </s> -0.3010
-0.3010 PUSHING BACK -0.2341
-0.3010 PUT THE -0.2871
-0.3010 QNH </s> -0.3010
-0.3010 QUANTITIES </s> -0.3010
-0.3010 QUANTITY </s> -0.3010
-0.3010 QUIET </s> -0.3010
-0.3010 RADIAL </s> -0.3010
-0.3010 RADIO FAILURE 0.0000
-0.3010 RADIOS </s> -0.3010
-0.9031 RAISE GEAR -0.1091
-0.9031 RAISE SPOILERS 0.0000
-0.6021 RAISE THE -0.2810
-1.4150 READY </s> -0.3010
-0.4607 READY FOR -0.0378
-0.9379 READY TO -0.2553
-0.7782 REAR </s> -0.3010
-0.7782 REAR LEFT -0.2218
-0.7782 REAR RIGHT -0.2218
-0.3010 RECALL </s> -0.3010
-0.3010 RECORD </s> -0.3010
-0.3010 RED LIGHT -0.1091
-0.3010 REF </s> -0.3010
-0.3010 REJECTED TAKEOFF -0.1996
-0.3010 RELEASE </s> -0.3010
-0.3010 RELEASED </s> -0.3010
-0.3010 REMOVE </s> -0.3010
-0.9031 REPEAT LAST 0.0000
-0.6021 REPEAT THAT -0.1249
-0.9031 REPEAT THAT? 0.0000
-0.3010 REQUEST PUSHBACK 0.0000
-0.3010 REQUIRED </s> -0.3010
-0.6021 RESUME THE -0.2891
-0.6021 RESUME THIS -0.1249
-1.0000 RETRACT </s> -0.3010
-1.0000 RETRACT GEAR -0.1091
-1.0000 RETRACT SPOILERS 0.0000
-0.6990 RETRACT THE -0.2810
-0.3010 RETRACTED </s> -0.3010
-0.6021 REVERSAL OFF -0.1563
-0.6021 REVERSAL ON -0.1761
-0.3010 REVERSE THRUST -0.0969
-0.6021 REVERSERS OFF -0.1563
-0.6021 REVERSERS ON -0.1761
-0.3010 REVIEW </s> -0.3010
-0.3010 REVIEWED </s> -0.3010
-0.3010 RICH </s> -0.3010
-0.7782 RIGHT </s> -0.3010
-0.7782 RIGHT DOOR 0.0000
-0.7782 RIGHT PACK 0.0000
-0.3010 RISE </s> -0.3010
-0.3010 RISING </s> -0.3010
-0.6021 ROGER </s> -0.3010
-0.6021 ROGER THAT -0.1249
-0.3010 ROLL HOLD -0.1549
-0.6021 ROTATE SPEED -0.1627
-0.6021 ROTATE SPEED? 0.0000
-0.6021 ROTATION SPEED -0.1627
-0.6021 ROTATION SPEED? 0.0000
-0.3010 ROUTES </s> -0.3010
-0.3010 RPM </s> -0.3010
-0.3010 RTO </s> -0.3010
-0.3010 RUNWAY </s> -0.3010
-0.9031 SAY AGAIN 0.0000
-0.9031 SAY LAST 0.0000
-0.6021 SAY THAT -0.2218
-0.3010 SCHEDULE </s> -0.3010
-0.7782 SEATBELT LIGHT -0.1091
-0.4771 SEATBELT SIGN 0.0000
-0.3010 SECONDS </s> -0.3010
-0.6021 SECURE </s> -0.3010
-0.6021 SECURE CHECKLIST -0.0458
-0.7984 SELECT </s> -0.3010
-1.6435 SELECT CLIMB -0.1761
-1.6435 SELECT COM1 -0.3010
-1.6435 SELECT COM2 -0.3010
-1.3424 SELECT FLAPS -0.0580
-1.3424 SELECT HEADING -0.2936
-1.6435 SELECT HNAV -0.2218
-1.6435 SELECT IN -0.2430
-1.6435 SELECT LNAV -0.1761
-1.6435 SELECT MAXIMUM -0.2218
-1.6435 SELECT PROPS 0.0000
-1.6435 SELECT SPEED -0.2258
-1.6435 SELECT TAKEOFF -0.2632
-1.6435 SELECT VNAV -0.2041
-0.3010 SELECTED </s> -0.3010
-0.3010 SELECTOR </s> -0.3010
-0.3010 SERVE MEALS 0.0000
-5.2403 SET </s> -0.3010
-5.7174 SET ADF1 0.0000
-5.7174 SET ADF2 0.0000
-1.7173 SET ALTIMETER -0.0000
-2.9371 SET ALTITUDE -0.0007
-5.2403 SET AND -0.2218
-5.7174 SET AUTOBRAKE 0.0000
-5.7174 SET CABIN -0.1761
-0.6383 SET COM1 0.0000
-0.6383 SET COM2 0.0000
-5.4164 SET COURSE -0.1249
-5.7174 SET EFIS 0.0000
-5.7174 SET FASTEN 0.0000
-5.7174 SET FLIGHT -0.2430
-5.4164 SET FOR -0.1891
-3.4230 SET HEADING -0.0165
-5.7174 SET LOCALIZER 0.0000
-5.7174 SET MODE -0.1963
-5.7174 SET N1 0.0000
-5.7174 SET N2 0.0000
-5.7174 SET ROTATE -0.1761
-5.7174 SET ROTATION -0.1761
-5.4164 SET SPEED -0.1489
-4.7632 SET SQUAWK -0.0280
-5.7174 SET STANDARD -0.2430
-5.7174 SET TAKEOFF -0.2632
-4.6383 SET THE -0.2600
-5.7174 SET TOGA 0.0000
-1.7173 SET TRANSPONDER -0.0005
-5.7174 SET V1 -0.2218
-5.7174 SET V2 -0.2218
-5.7174 SET VERTICAL -0.1549
-0.3010 SETTING </s> -0.3010
-0.3010 SETUP </s> -0.3010
-1.9024 SEVEN </s> -0.3010
-1.4026 SEVEN EIGHT -0.0001
-5.3804 SEVEN EIGHTY -0.2385
-4.6814 SEVEN FEET 0.0000
-5.3804 SEVEN FIFTY -0.2407
-1.4026 SEVEN FIVE -0.0001
-5.3804 SEVEN FORTY -0.2407
-1.4026 SEVEN FOUR -0.0001
-4.3804 SEVEN HUNDRED 0.0000
-1.4026 SEVEN NINE -0.0001
-5.3804 SEVEN NINETY -0.2363
-1.3197 SEVEN ONE -0.0001
-1.4026 SEVEN SEVEN -0.0001
-5.3804 SEVEN SEVENTY -0.2385
-1.4026 SEVEN SIX -0.0001
-5.3804 SEVEN SIXTY -0.2385
-2.0791 SEVEN TEN -0.0006
-5.3804 SEVEN THIRTY -0.2407
-4.3804 SEVEN THOUSAND 0.0000
-1.4026 SEVEN THREE -0.0001
-5.3804 SEVEN TWENTY -0.2407
-1.4026 SEVEN TWO -0.0001
-0.9410 SEVEN ZERO -0.0000
-0.3010 SEVENTEEN </s> -0.3010
-1.1357 SEVENTY </s> -0.3010
-1.2148 SEVENTY DEGREES 0.0000
-1.4367 SEVENTY EIGHT -0.2955
-1.4367 SEVENTY FIVE -0.2955
-1.4367 SEVENTY FOUR -0.2955
-1.4367 SEVENTY NINE -0.2955
-1.4367 SEVENTY ONE -0.2963
-1.4367 SEVENTY SEVEN -0.2955
-1.4367 SEVENTY SIX -0.2955
-1.4367 SEVENTY THREE -0.2955
-1.4367 SEVENTY TWO -0.2955
-1.4367 SEVENTY ZERO -0.1962
-0.3010 SHUT DOWN -0.2304
-0.3010 SID </s> -0.3010
-0.3010 SIDE </s> -0.3010
-0.3010 SIGN </s> -0.3010
-0.3010 SIGNAL </s> -0.3010
-1.9024 SIX </s> -0.3010
-1.4026 SIX EIGHT -0.0001
-5.3804 SIX EIGHTY -0.2385
-4.6814 SIX FEET 0.0000
-5.3804 SIX FIFTY -0.2407
-1.4026 SIX FIVE -0.0001
-5.3804 SIX FORTY -0.2407
-1.4026 SIX FOUR -0.0001
-4.3804 SIX HUNDRED 0.0000
-1.4026 SIX NINE -0.0001
-5.3804 SIX NINETY -0.2363
-1.3197 SIX ONE -0.0001
-1.4026 SIX SEVEN -0.0001
-5.3804 SIX SEVENTY -0.2385
-1.4026 SIX SIX -0.0001
-5.3804 SIX SIXTY -0.2385
-2.0791 SIX TEN -0.0006
-5.3804 SIX THIRTY -0.2407
-4.3804 SIX THOUSAND 0.0000
-1.4026 SIX THREE -0.0001
-5.3804 SIX TWENTY -0.2407
-1.4026 SIX TWO -0.0001
-0.9410 SIX ZERO -0.0000
-0.3010 SIXTEEN </s> -0.3010
-1.1357 SIXTY </s> -0.3010
-1.2148 SIXTY DEGREES 0.0000
-1.4367 SIXTY EIGHT -0.2955
-1.4367 SIXTY FIVE -0.2955
-1.4367 SIXTY FOUR -0.2955
-1.4367 SIXTY NINE -0.2955
-1.4367 SIXTY ONE -0.2963
-1.4367 SIXTY SEVEN -0.2955
-1.4367 SIXTY SIX -0.2955
-1.4367 SIXTY THREE -0.2955
-1.4367 SIXTY TWO -0.2955
-1.4367 SIXTY ZERO -0.1962
-0.3010 SORRY? </s> -0.3010
-0.3010 SOUTH </s> -0.3010
-0.5643 SPEED </s> -0.3010
-1.6435 SPEED BUG -0.2218
-0.7984 SPEED INTERVENTION 0.0000
-1.3424 SPEED TO -0.1461
-0.3010 SPEED? </s> -0.3010
-0.3010 SPEEDBRAKE </s> -0.3010
-0.4102 SPEEDBRAKES </s> -0.3010
-1.2553 SPEEDBRAKES OFF -0.1563
-1.2553 SPEEDBRAKES ON -0.1761
-0.3010 SPOILERS </s> -0.3010
-1.1761 SQUAWK EMERGENCY 0.0000
-1.4771 SQUAWK EUROPEAN -0.1761
-1.1761 SQUAWK IDENT 0.0000
-1.4771 SQUAWK IDENTIFY 0.0000
-1.0000 SQUAWK MILITARY 0.0000
-1.1761 SQUAWK RADIO 0.0000
-0.8751 SQUAWK VFR 0.0000
-0.4260 STANDARD </s> -0.3010
-0.9031 STANDARD PRESSURE 0.0000
-0.4260 STANDBY </s> -0.3010
-0.9031 STANDBY POWER 0.0000
-0.3010 STAR </s> -0.3010
-1.2041 START </s> -0.3010
-1.2041 START AGAIN 0.0000
-1.5051 START APU -0.0726
-1.2041 START CHECKLIST -0.0458
-1.0280 START ENGINE 0.0000
-1.5051 START ENGINES 0.0000
-1.5051 START OVER -0.2218
-1.5051 START PUSHBACK 0.0000
-1.2041 START THE -0.2891
-1.5051 START UP -0.2900
-0.6021 STOP PUSHBACK 0.0000
-0.6021 STOP PUSHING 0.0000
-0.3010 STOWED </s> -0.3010
-0.6021 STROBE </s> -0.3010
-0.6021 STROBE LIGHT -0.1091
-0.3010 SWITCH ON -0.2282
-0.3010 SYNC </s> -0.3010
-0.6021 SYSTEM </s> -0.3010
-0.6021 SYSTEM CHECKS 0.0000
-0.3010 TA </s> -0.3010
-0.3010 TA-RA </s> -0.3010
-0.6812 TAKEOFF </s> -0.3010
-0.9031 TAKEOFF CHECKLIST -0.0458
-1.3802 TAKEOFF FLAPS -0.2688
-1.3802 TAKEOFF SETTING 0.0000
-1.0792 TAKEOFF THRUST -0.1576
-1.0792 TAXI </s> -0.3010
-1.0792 TAXI CHECKLIST -0.0458
-0.4771 TAXI LIGHTS 0.0000
-0.3010 TAXIWAY </s> -0.3010
-0.7782 TELL ME -0.1249
-0.4771 TELL THE -0.2911
-0.3010 TEMPERATURE </s> -0.3010
-0.3010 TEMPERATURE? </s> -0.3010
-3.8626 TEN </s> -0.3010
-3.9040 TEN DEGREES 0.0000
-4.1258 TEN EIGHT -0.2955
-4.1258 TEN FIVE -0.2955
-4.1258 TEN FOUR -0.2955
-4.1258 TEN NINE -0.2955
-4.1258 TEN ONE -0.2963
-4.1258 TEN SEVEN -0.2955
-4.1258 TEN SIX -0.2955
-4.1258 TEN THREE -0.2955
-4.1258 TEN TWO -0.2955
-0.3018 TEN ZERO -0.0690
-0.3010 TEST </s> -0.3010
-0.3010 THANK YOU -0.1249
-0.3010 THANKS </s> -0.3010
-0.4771 THAT </s> -0.3010
-0.7782 THAT AGAIN 0.0000
-0.3010 THAT? </s> -0.3010
-2.3464 THE ALTIMETER -0.3010
-2.0453 THE ALTITUDE -0.3000
-1.5682 THE APU -0.0726
-1.8692 THE AUTOPILOT -0.1461
-2.0453 THE AUTOTHROTTLE -0.1249
-2.0453 THE AUTOTHROTTLES 0.0000
-2.0453 THE AVIONICS 0.0000
-1.7443 THE BEACON -0.0458
-2.3464 THE BEGINNING 0.0000
-1.8692 THE BRAKES 0.0000
-2.3464 THE CABIN -0.1761
-1.5682 THE CHECKLIST 0.0000
-2.3464 THE CREW 0.0000
-2.3464 THE DOORS 0.0000
-2.0453 THE FLAPS -0.0580
-1.7443 THE FLIGHT -0.1513
-1.5013 THE GEAR 0.0000
-2.3464 THE HEADING -0.3000
-2.3464 THE INSTRUMENTS -0.1249
-1.3464 THE LANDING -0.1091
-2.3464 THE LEFT -0.2218
-2.3464 THE LOCALIZER 0.0000
-1.7443 THE LOGO -0.0669
-1.4433 THE NAV -0.0322
-2.0453 THE PITOT -0.0512
-2.3464 THE RIGHT -0.2218
-1.8692 THE SEATBELT 0.0000
-2.3464 THE SPEED -0.2808
-2.0453 THE SPEEDBRAKES -0.0872
-1.8692 THE SPOILERS 0.0000
-2.3464 THE START -0.2730
-2.0453 THE TAXI -0.1249
-2.0453 THE TEMPERATURE? 0.0000
-1.5013 THE TRANSPONDER -0.3008
-2.3464 THE VERTICAL -0.1549
-1.8692 THE WAY 0.0000
-2.0453 THE WEATHER -0.1249
-1.8692 THE WEATHER? 0.0000
-2.0453 THE WHOLE 0.0000
-2.0453 THE WING -0.0580
-0.3010 THEN </s> -0.3010
-0.3010 THIRTEEN </s> -0.3010
-1.1681 THIRTY </s> -0.3010
-1.2095 THIRTY DEGREES 0.0000
-1.4314 THIRTY EIGHT -0.2955
-1.4314 THIRTY FIVE -0.2955
-1.4314 THIRTY FOUR -0.2955
-1.4314 THIRTY NINE -0.2955
-1.4314 THIRTY ONE -0.2963
-1.4314 THIRTY SEVEN -0.2955
-1.4314 THIRTY SIX -0.2955
-1.4314 THIRTY THREE -0.2955
-1.4314 THIRTY TWO -0.2955
-1.4314 THIRTY ZERO -0.1962
-1.0792 THIS </s> -0.3010
-1.0792 THIS AGAIN 0.0000
-0.4771 THIS CHECKLIST -0.0158
-0.5957 THOUSAND </s> -0.3010
-0.6085 THOUSAND FEET 0.0000
-1.9024 THREE </s> -0.3010
-1.4026 THREE EIGHT -0.0001
-5.3804 THREE EIGHTY -0.2385
-4.6814 THREE FEET 0.0000
-5.3804 THREE FIFTY -0.2407
-1.4026 THREE FIVE -0.0001
-5.3804 THREE FORTY -0.2407
-1.4026 THREE FOUR -0.0001
-4.3804 THREE HUNDRED 0.0000
-1.4026 THREE NINE -0.0001
-5.3804 THREE NINETY -0.2363
-1.3197 THREE ONE -0.0001
-1.4026 THREE SEVEN -0.0001
-5.3804 THREE SEVENTY -0.2385
-1.4026 THREE SIX -0.0001
-5.2043 THREE SIXTY -0.2385
-2.0791 THREE TEN -0.0006
-5.3804 THREE THIRTY -0.2407
-4.3804 THREE THOUSAND 0.0000
-1.4026 THREE THREE -0.0001
-5.3804 THREE TWENTY -0.2407
-1.4026 THREE TWO -0.0001
-0.9410 THREE ZERO -0.0000
-0.5509 THRUST </s> -0.3010
-1.5051 THRUST AT 0.0000
-1.5051 THRUST OFF -0.1563
-1.5051 THRUST ON -0.1761
-1.2041 THRUST REVERSAL 0.0000
-1.2041 THRUST REVERSERS 0.0000
-0.3010 TIME </s> -0.3010
-0.5229 TO </s> -0.3010
-1.6021 TO BASICS 0.0000
-1.6021 TO GO -0.2632
-1.3010 TO SERVE 0.0000
-1.6021 TO STANDARD -0.0969
-1.6021 TO TAXI -0.2632
-1.3010 TO THE -0.2971
-0.3010 TOGA </s> -0.3010
-1.2041 TOGGLE AUTOPILOT -0.1461
-1.2041 TOGGLE AVIONICS 0.0000
-1.2041 TOGGLE REVERSE 0.0000
-1.2041 TOGGLE SPEED -0.2258
-0.6021 TOGGLE THE -0.2622
-0.3010 TOO DARK 0.0000
-0.6021 TRANSITION </s> -0.3010
-0.6021 TRANSITION LEVEL -0.1963
-3.3476 TRANSPONDER </s> -0.3010
-1.3019 TRANSPONDER EIGHT -0.0179
-1.3019 TRANSPONDER FIVE -0.0179
-1.3019 TRANSPONDER FOUR -0.0179
-3.6998 TRANSPONDER MODE -0.1091
-1.3019 TRANSPONDER NINE -0.0179
-4.3019 TRANSPONDER OFF -0.1563
-4.3019 TRANSPONDER ON -0.1761
-1.3019 TRANSPONDER ONE -0.0154
-1.3019 TRANSPONDER SEVEN -0.0179
-1.3019 TRANSPONDER SIX -0.0179
-4.3019 TRANSPONDER STANDBY -0.0969
-1.3019 TRANSPONDER THREE -0.0179
-3.8247 TRANSPONDER TO -0.1461
-1.3019 TRANSPONDER TWO -0.0179
-1.3019 TRANSPONDER ZERO -0.1562
-0.3010 TUBE </s> -0.3010
-0.6021 TUNE COM1 -0.0000
-0.6021 TUNE COM2 -0.0000
-0.3010 TUNED </s> -0.3010
-0.6307 TURN OFF -0.1996
-0.6114 TURN ON -0.1928
-1.6721 TURN THE -0.2951
-0.3010 TURNOFF </s> -0.3010
-0.3010 TWELVE </s> -0.3010
-1.1681 TWENTY </s> -0.3010
-1.2095 TWENTY DEGREES 0.0000
-1.4314 TWENTY EIGHT -0.2955
-1.4314 TWENTY FIVE -0.2955
-1.4314 TWENTY FOUR -0.2955
-1.4314 TWENTY NINE -0.2955
-1.4314 TWENTY ONE -0.2963
-1.4314 TWENTY SEVEN -0.2955
-1.4314 TWENTY SIX -0.2955
-1.4314 TWENTY THREE -0.2955
-1.4314 TWENTY TWO -0.2955
-1.4314 TWENTY ZERO -0.1962
-1.9024 TWO </s> -0.3010
-1.4026 TWO EIGHT -0.0001
-5.3804 TWO EIGHTY -0.2385
-4.6814 TWO FEET 0.0000
-5.3804 TWO FIFTY -0.2407
-1.4026 TWO FIVE -0.0001
-5.3804 TWO FORTY -0.2407
-1.4026 TWO FOUR -0.0001
-4.3804 TWO HUNDRED 0.0000
-1.4026 TWO NINE -0.0001
-5.3804 TWO NINETY -0.2363
-1.3197 TWO ONE -0.0001
-1.4026 TWO SEVEN -0.0001
-5.2043 TWO SEVENTY -0.2385
-1.4026 TWO SIX -0.0001
-5.3804 TWO SIXTY -0.2385
-2.0791 TWO TEN -0.0006
-5.3804 TWO THIRTY -0.2407
-4.3804 TWO THOUSAND 0.0000
-1.4026 TWO THREE -0.0001
-5.3804 TWO TWENTY -0.2407
-1.4026 TWO TWO -0.0001
-0.9410 TWO ZERO -0.0000
-0.3010 UNIT </s> -0.3010
-0.3010 UNLOCKED </s> -0.3010
-0.6990 UP </s> -0.3010
-1.3010 UP A -0.0792
-1.3010 UP ALL -0.1627
-1.3010 UP BY 0.0000
-1.6021 UP CHECKLIST -0.0458
-1.3010 UP ENTIRELY 0.0000
-1.6021 UP ONE -0.2963
-1.3010 UP THE -0.2971
-0.4771 V1 </s> -0.3010
-0.7782 V1 SPEED -0.1627
-0.3010 V1? </s> -0.3010
-0.4771 V2 </s> -0.3010
-0.7782 V2 SPEED -0.1627
-0.3010 V2? </s> -0.3010
-0.3010 VERIFY </s> -0.3010
-0.6690 VERTICAL NAVIGATION -0.0726
-0.5441 VERTICAL SPEED -0.1347
-0.4771 VFR </s> -0.3010
-1.0792 VFR EUROPEAN -0.1761
-1.0792 VFR IN -0.2430
-0.3010 VISUALLY </s> -0.3010
-0.6990 VNAV </s> -0.3010
-1.0000 VNAV OFF -0.1563
-1.0000 VNAV ON -0.1761
-1.0000 VNAV PATH 0.0000
-0.3010 VOR HOLD -0.1549
-0.3010 VR? </s> -0.3010
-0.3010 WAT? </s> -0.3010
-0.3979 WAY </s> -0.3010
-1.0000 WAY BACK -0.2341
-0.3010 WE DO 0.0000
-0.3010 WE'RE READY -0.1165
-0.7782 WEATHER </s> -0.3010
-0.4771 WEATHER LOOKING -0.1249
-0.3010 WEATHER? </s> -0.3010
-0.3010 WEST </s> -0.3010
-0.3010 WHAT IS 0.0000
-1.1461 WHAT'S ROTATE -0.1761
-1.1461 WHAT'S ROTATION -0.1761
-0.8451 WHAT'S THE -0.2931
-1.1461 WHAT'S V1? 0.0000
-1.1461 WHAT'S V2? 0.0000
-1.1461 WHAT'S VR? 0.0000
-0.3010 WHAT? </s> -0.3010
-0.3010 WHOLE WAY -0.0792
-1.1461 WING </s> -0.3010
-0.3680 WING LIGHTS -0.0189
-0.3010 WITHIN </s> -0.3010
-0.3010 WORKING </s> -0.3010
-0.3010 WUT? </s> -0.3010
-0.3010 YAW DAMPER 0.0000
-0.4771 YOU </s> -0.3010
-0.7782 YOU REPEAT -0.2430
-0.3010 YOUR SIDE 0.0000
-0.6688 ZERO </s> -0.3010
-2.0392 ZERO EIGHT -0.0000
-6.0171 ZERO EIGHTY -0.2385
-5.3181 ZERO FEET 0.0000
-6.0171 ZERO FIFTY -0.2407
-2.0392 ZERO FIVE -0.0000
-6.0171 ZERO FORTY -0.2407
-2.0392 ZERO FOUR -0.0000
-5.0171 ZERO HUNDRED 0.0000
-2.0392 ZERO NINE -0.0000
-6.0171 ZERO NINETY -0.2363
-1.9563 ZERO ONE -0.0000
-2.0392 ZERO SEVEN -0.0000
-6.0171 ZERO SEVENTY -0.2385
-2.0392 ZERO SIX -0.0000
-6.0171 ZERO SIXTY -0.2385
-2.7158 ZERO TEN -0.0006
-6.0171 ZERO THIRTY -0.2407
-5.0171 ZERO THOUSAND 0.0000
-2.0392 ZERO THREE -0.0000
-6.0171 ZERO TWENTY -0.2407
-2.0392 ZERO TWO -0.0000
-0.7001 ZERO ZERO -0.0000

\3-grams:
-0.4771 <s> A COUPLE
-0.7782 <s> A THOUSAND
-0.3010 <s> ABOARD </s>
-0.3010 <s> ADD </s>
-0.3010 <s> ADF1 </s>
-0.3010 <s> ADF2 </s>
-0.3010 <s> ADJUST </s>
-0.3010 <s> ADJUSTED </s>
-0.3010 <s> ADVISED </s>
-0.3010 <s> AFFIRMATIVE </s>
-0.6021 <s> AFTER LANDING
-0.6021 <s> AFTER TAKEOFF
-0.3010 <s> AIRCRAFT </s>
-1.2041 <s> ALL </s>
-1.2041 <s> ALL AUTO
-1.2041 <s> ALL AUTOMATIC
-1.2041 <s> ALL OFF
-1.2041 <s> ALL ON
-0.7270 <s> ALL THE
-0.3010 <s> ALT HOLD
-0.3010 <s> ALTERNATE </s>
-0.3010 <s> ALTIMETER STANDARD
-0.9031 <s> ALTITUDE </s>
-0.4260 <s> ALTITUDE HOLD
-0.3010 <s> ANNOUNCED </s>
-0.3010 <s> APP </s>
-0.6021 <s> APPROACH </s>
-0.6021 <s> APPROACH CHECKLIST
-0.6021 <s> APU BLEED
-0.6021 <s> APU GENERATORS
-0.3010 <s> ARE </s>
-1.0000 <s> ARM </s>
-1.3010 <s> ARM AUTOTHROTTLE
-1.3010 <s> ARM LOCALIZER
-1.3010 <s> ARM SPEEDBRAKES
-0.6021 <s> ARM THE
-0.3010 <s> ARMED </s>
-0.9031 <s> AS DESIRED
-0.9031 <s> AS NEEDED
-0.6021 <s> AS REQUIRED
-0.3010 <s> AUDIBLY </s>
-0.3010 <s> AUTO </s>
-0.3010 <s> AUTOBRAKE </s>
-0.9031 <s> AUTOPILOT CONNECT
-0.9031 <s> AUTOPILOT DISCONNECT
-0.9031 <s> AUTOPILOT OFF
-0.9031 <s> AUTOPILOT ON
-0.6021 <s> AUTOTHROTTLE OFF
-0.6021 <s> AUTOTHROTTLE ON
-0.3010 <s> AUXILIARY </s>
-0.3010 <s> AVAILABLE </s>
-0.6990 <s> BACK COURSE
-0.5229 <s> BACK TO
-0.6021 <s> BARO </s>
-0.6021 <s> BARO REF
-0.3010 <s> BAROMETER </s>
-0.3010 <s> BATTERIES </s>
-0.3010 <s> BATTERY </s>
-0.7782 <s> BEACON LIGHT
-0.4771 <s> BEACON LIGHTS
-0.7782 <s> BEFORE START
-0.7782 <s> BEFORE TAKEOFF
-0.7782 <s> BEFORE TAXI
-0.3010 <s> BELLY LANDING
-0.3010 <s> BLEED </s>
-0.3010 <s> BLEEDS </s>
-0.6021 <s> BOTH OFF
-0.6021 <s> BOTH ON
-0.3010 <s> BRAKES </s>
-0.3010 <s> BRIGHT </s>
-0.6021 <s> BRIGHTEN INSTRUMENTS
-0.6021 <s> BRIGHTEN THE
-0.3010 <s> BULB </s>
-0.6021 <s> CABIN </s>
-0.6021 <s> CABIN LIGHTING
-0.3010 <s> CALCULATED </s>
-0.3010 <s> CAN WE
-0.3010 <s> CANCEL LANDING
-0.3010 <s> CAPTURE </s>
-0.3010 <s> CDU </s>
-0.9031 <s> CHANGE ADF1
-0.9031 <s> CHANGE ADF2
-0.9031 <s> CHANGE COM1
-0.9031 <s> CHANGE COM2
-0.3010 <s> CHARTS </s>
-0.7782 <s> CHECK </s>
-1.2553 <s> CHECK ALTIMETER
-1.2553 <s> CHECK AND
-1.2553 <s> CHECK CONDITION
-1.2553 <s> CHECK LANDING
-1.2553 <s> CHECK QUANTITY
-1.2553 <s> CHECK VISUALLY
-0.4260 <s> CHECKED </s>
-0.9031 <s> CHECKED AND
-0.3010 <s> CHECKLIST </s>
-0.3010 <s> CIRCUIT BREAKERS
-0.3010 <s> CLEAR </s>
-0.3010 <s> CLIMB </s>
-0.7782 <s> CLOSED </s>
-0.4771 <s> CLOSED AND
-0.3010 <s> COLD </s>
-0.6021 <s> COMMUNICATIONS 1
-0.6021 <s> COMMUNICATIONS 2
-0.3010 <s> COMPLETE </s>
-0.3010 <s> COMPLETED </s>
-0.3010 <s> CONDUCT </s>
-0.3010 <s> CONDUCTED </s>
-0.3010 <s> CONFIGURED </s>
-0.3010 <s> CONFIRM </s>
-0.3010 <s> CONNECT AUTOPILOT
-0.3010 <s> CONTINUOUS </s>
-0.3010 <s> COULD YOU
-0.3010 <s> COURSE </s>
-0.3010 <s> CROSS CHECKED
-0.3010 <s> CROSSCHECK </s>
-0.3010 <s> CRUISE </s>
-0.3010 <s> CUTOFF </s>
-0.3010 <s> CUTOUT </s>
-0.3010 <s> DARK </s>
-0.3010 <s> DECIMAL </s>
-0.3010 <s> DECREASING </s>
-0.3010 <s> DEGREES </s>
-0.3010 <s> DESCENT CHECKLIST
-0.6021 <s> DESELECT HEADING
-0.9031 <s> DESELECT SPEED
-0.9031 <s> DESELECT VERTICAL
-0.3010 <s> DETENT </s>
-0.3010 <s> DIFF </s>
-0.3010 <s> DIFFERENTIAL </s>
-1.0000 <s> DISABLE </s>
-0.5229 <s> DISABLE THE
-1.0000 <s> DISABLE TRANSPONDER
-0.3010 <s> DISABLED </s>
-1.0000 <s> DISARM AUTOTHROTTLE
-1.0000 <s> DISARM SPEEDBRAKES
-0.5229 <s> DISARM THE
-0.3010 <s> DISARMED </s>
-0.3010 <s> DISC </s>
-0.7782 <s> DISCONNECT </s>
-0.7782 <s> DISCONNECT AUTOPILOT
-0.7782 <s> DISCONNECT THE
-0.3010 <s> DISCONNECTED </s>
-1.0000 <s> DISENGAGE </s>
-1.0000 <s> DISENGAGE BEACON
-1.0000 <s> DISENGAGE REVERSE
-0.6990 <s> DISENGAGE THE
-0.3010 <s> DOORS </s>
-0.6021 <s> DOWN </s>
-0.6021 <s> DOWN AND
-0.3010 <s> DROPPING </s>
-0.3010 <s> ECAM </s>
-0.3010 <s> EIGHT </s>
-0.3010 <s> EIGHTEEN </s>
-0.3010 <s> EIGHTY </s>
-0.3010 <s> ELECTRICAL </s>
-0.3010 <s> ELEVEN </s>
-0.3010 <s> EMERGENCY </s>
-0.7782 <s> ENABLE </s>
-0.7782 <s> ENABLE THE
-0.7782 <s> ENABLE TRANSPONDER
-0.3010 <s> ENABLED </s>
-0.9031 <s> ENGAGE </s>
-0.9031 <s> ENGAGE BEACON
-0.9031 <s> ENGAGE REVERSE
-0.9031 <s> ENGAGE THE
-0.3010 <s> EVACUATE </s>
-0.3010 <s> EVACUATION </s>
-0.3010 <s> EXECUTE </s>
-0.7782 <s> EXTEND </s>
-0.7782 <s> EXTEND GEAR
-0.7782 <s> EXTEND THE
-0.3010 <s> EXTENDED </s>
-0.3010 <s> EXTERIOR </s>
-0.6021 <s> EXTERNAL </s>
-0.6021 <s> EXTERNAL POWER
-0.3010 <s> EXTINGUISHED </s>
-0.3010 <s> FASTENED </s>
-0.3010 <s> FAULT </s>
-0.3010 <s> FEET </s>
-0.3010 <s> FIFTEEN </s>
-0.3010 <s> FIFTY </s>
-0.3010 <s> FIRE </s>
-0.3010 <s> FIVE </s>
-0.3010 <s> FIXED </s>
-1.2041 <s> FLAPS </s>
-1.5051 <s> FLAPS DOWN
-0.3912 <s> FLAPS UP
-0.6021 <s> FLARE </s>
-0.6021 <s> FLARE ARMED
-1.1461 <s> FLIGHT ATTENDANT
-0.6690 <s> FLIGHT DIRECTOR
-0.8451 <s> FLIGHT DIRECTORS
-1.1461 <s> FLIGHT LEVEL
-1.3802 <s> FLIP COM1
-1.3802 <s> FLIP COM2
-1.3802 <s> FLIP NAV1
-1.3802 <s> FLIP NAV2
-0.9031 <s> FLIP OFF
-0.6812 <s> FLIP ON
-0.3010 <s> FLOW </s>
-0.3010 <s> FMS </s>
-0.7782 <s> FORGET IT
-0.7782 <s> FORGET THE
-0.7782 <s> FORGET THIS
-0.3010 <s> FORTY </s>
-0.3010 <s> FORWARD </s>
-0.3010 <s> FOUR </s>
-0.3010 <s> FOURTEEN </s>
-0.6021 <s> FREE </s>
-0.6021 <s> FREE AND
-0.3010 <s> FREQUENCY </s>
-0.3010 <s> FUEL </s>
-0.6021 <s> FULL LEFT
-0.6021 <s> FULL RIGHT
-0.3010 <s> GAUGES </s>
-0.7782 <s> GEAR </s>
-0.7782 <s> GEAR DOWN
-0.7782 <s> GEAR UP
-0.3010 <s> GEN </s>
-0.3010 <s> GLIDESLOPE </s>
-0.3010 <s> GO AROUND
-0.3010 <s> GO-AROUND </s>
-0.3010 <s> GOT THAT
-0.3010 <s> GPWS </s>
-0.6021 <s> GREEN </s>
-0.6021 <s> GREEN LIGHT
-0.6021 <s> GROUND </s>
-0.6021 <s> GROUND POWER
-0.3010 <s> GUARD </s>
-0.3010 <s> HAM? </s>
-0.9031 <s> HEADING </s>
-0.9031 <s> HEADING HOLD
-0.6021 <s> HEADING SELECT
-0.3010 <s> HECTOPASCALS </s>
-0.3010 <s> HEM? </s>
-0.6021 <s> HNAV OFF
-0.6021 <s> HNAV ON
-1.0000 <s> HOLD </s>
-1.0000 <s> HOLD REVERSE
-1.0000 <s> HOLD THE
-1.0000 <s> HOLD THIS
-1.0000 <s> HOLD TO
-0.6021 <s> HORIZONTAL </s>
-0.6021 <s> HORIZONTAL NAVIGATION
-0.3010 <s> HOW IS
-0.3010 <s> HOW'S THE
-0.3010 <s> HUM? </s>
-0.3010 <s> HUNDRED </s>
-0.3010 <s> HYDRAULIC </s>
-0.3010 <s> I COULDN'T
-0.3010 <s> IAS </s>
-0.3010 <s> IDLE </s>
-0.3010 <s> IF REQUIRED
-0.3010 <s> IFR </s>
-0.3010 <s> IGNITE </s>
-0.3010 <s> ILLUMINATED </s>
-0.3010 <s> IN </s>
-0.3010 <s> INCHES OF
-0.3010 <s> INCREASING </s>
-0.3010 <s> INIT REF
-0.3010 <s> INOP </s>
-0.3010 <s> INOPERATIVE </s>
-0.3010 <s> INSTRUMENTS TOO
-0.3010 <s> INTERIOR </s>
-0.3010 <s> INTERNAL </s>
-0.3010 <s> IRS </s>
-0.3010 <s> KIAS </s>
-0.3010 <s> KILL ENGINE
-0.3010 <s> KNOTS </s>
-1.1461 <s> LANDING ALT
-1.1461 <s> LANDING ALTITUDE
-0.6690 <s> LANDING LIGHT
-0.8451 <s> LANDING LIGHTS
-0.3010 <s> LATERAL NAVIGATION
-0.3010 <s> LEAN </s>
-0.6021 <s> LEFT </s>
-0.6021 <s> LEFT PACK
-0.3010 <s> LET ME
-0.6021 <s> LET'S GO
-0.9031 <s> LET'S PUSHBACK
-0.9031 <s> LET'S START
-0.3010 <s> LEVEL CHANGE
-0.3010 <s> LIGHTING </s>
-0.3010 <s> LIKE </s>
-0.7782 <s> LNAV </s>
-0.7782 <s> LNAV OFF
-0.7782 <s> LNAV ON
-0.3010 <s> LOCALIZER </s>
-0.3010 <s> LOCKED </s>
-0.6021 <s> LOGO </s>
-0.6021 <s> LOGO LIGHTS
-0.3010 <s> LOOKING </s>
-0.3010 <s> LOUD </s>
-0.7782 <s> LOWER GEAR
-0.7782 <s> LOWER ON
-0.7782 <s> LOWER THE
-0.3010 <s> MACH </s>
-0.3010 <s> MAKE </s>
-0.3010 <s> MANUAL BRAKING
-0.3010 <s> MARKER </s>
-0.3010 <s> MARKERS </s>
-0.6021 <s> MAX </s>
-0.6021 <s> MAX REVERSE
-0.6021 <s> MAXIMUM BRAKING
-0.6021 <s> MAXIMUM REVERSE
-0.3010 <s> MCP </s>
-0.3010 <s> MEAL TIME
-0.3010 <s> MINIMUMS </s>
-0.3010 <s> MINUS </s>
-0.3010 <s> MIXTURE </s>
-0.9031 <s> MUTE ADF1
-0.9031 <s> MUTE ADF2
-0.9031 <s> MUTE COM1
-0.9031 <s> MUTE COM2
-0.3010 <s> N1 </s>
-0.3010 <s> N2 </s>
-0.3010 <s> NAUTICAL MILES
-1.0000 <s> NAV </s>
-0.6990 <s> NAV LIGHT
-0.6990 <s> NAV LIGHTS
-0.3010 <s> NAVIGATION LIGHTS
-0.3010 <s> NEGATIVE </s>
-0.3010 <s> NEXT </s>
-0.3010 <s> NINE </s>
-0.3010 <s> NINER </s>
-0.3010 <s> NINETEEN </s>
-0.3010 <s> NINETY </s>
-0.3010 <s> NON NORMAL
-0.3010 <s> NORMAL </s>
-0.3010 <s> NOTIFIED </s>
-0.3010 <s> NOTIFY </s>
-0.6021 <s> OBTAIN </s>
-0.6021 <s> OBTAIN CLEARANCE
-0.4771 <s> OFF </s>
-0.7782 <s> OFF SPEEDBRAKES
-0.3010 <s> OKAY THANKS
-0.9031 <s> ON </s>
-0.9031 <s> ON MY
-0.9031 <s> ON SPEEDBRAKES
-0.9031 <s> ON YOUR
-0.3010 <s> ONE </s>
-1.0000 <s> OPEN ALL
-0.6990 <s> OPEN FRONT
-0.6990 <s> OPEN REAR
-0.3010 <s> OPERATION </s>
-0.3010 <s> OUT </s>
-0.3010 <s> OXYGEN </s>
-0.3010 <s> P.A </s>
-0.3010 <s> PA SYSTEM
-0.3010 <s> PARK </s>
-0.6021 <s> PARKING BRAKE
-0.6021 <s> PARKING BRAKES
-0.6021 <s> PAUSE THE
-0.6021 <s> PAUSE THIS
-0.3010 <s> PEDAL </s>
-0.4260 <s> PITOT HEAT
-0.9031 <s> PITOT HEATER
-0.4771 <s> PLEASE DISCONNECT
-0.7782 <s> PLEASE REPEAT
-0.3010 <s> POINT </s>
-1.0792 <s> POSITION </s>
-0.7782 <s> POSITION LIGHT
-0.6021 <s> POSITION LIGHTS
-0.3010 <s> POWER </s>
-0.3010 <s> PREFLIGHT CHECKLIST
-0.3010 <s> PROGRAMMED </s>
-0.3010 <s> PSI </s>
-0.3010 <s> PULL </s>
-0.3010 <s> PUMP </s>
-0.3010 <s> PUT THE
-0.3010 <s> QNH </s>
-0.3010 <s> QUANTITIES </s>
-0.3010 <s> QUANTITY </s>
-0.3010 <s> QUIET </s>
-0.3010 <s> RADIAL </s>
-0.3010 <s> RADIOS </s>
-0.9031 <s> RAISE GEAR
-0.9031 <s> RAISE SPOILERS
-0.6021 <s> RAISE THE
-1.2041 <s> READY </s>
-0.6021 <s> READY FOR
-0.7270 <s> READY TO
-0.3010 <s> REAR </s>
-0.3010 <s> RECALL </s>
-0.3010 <s> RECORD </s>
-0.3010 <s> RED LIGHT
-0.3010 <s> REJECTED TAKEOFF
-0.3010 <s> RELEASE </s>
-0.3010 <s> RELEASED </s>
-0.3010 <s> REMOVE </s>
-0.6021 <s> REPEAT LAST
-0.6021 <s> REPEAT THAT
-0.3010 <s> REQUEST PUSHBACK
-0.6021 <s> RESUME THE
-0.6021 <s> RESUME THIS
-1.0000 <s> RETRACT </s>
-1.0000 <s> RETRACT GEAR
-1.0000 <s> RETRACT SPOILERS
-0.6990 <s> RETRACT THE
-0.3010 <s> RETRACTED </s>
-0.3010 <s> REVERSE THRUST
-0.3010 <s> REVIEW </s>
-0.3010 <s> REVIEWED </s>
-0.3010 <s> RICH </s>
-0.6021 <s> RIGHT </s>
-0.6021 <s> RIGHT PACK
-0.3010 <s> RISE </s>
-0.3010 <s> RISING </s>
-0.6021 <s> ROGER </s>
-0.6021 <s> ROGER THAT
-0.3010 <s> ROLL HOLD
-0.3010 <s> ROTATE SPEED
-0.3010 <s> ROTATION SPEED
-0.3010 <s> ROUTES </s>
-0.3010 <s> RPM </s>
-0.3010 <s> RTO </s>
-0.3010 <s> RUNWAY </s>
-0.9031 <s> SAY AGAIN
-0.9031 <s> SAY LAST
-0.6021 <s> SAY THAT
-0.3010 <s> SCHEDULE </s>
-0.3010 <s> SECONDS </s>
-0.6021 <s> SECURE </s>
-0.6021 <s> SECURE CHECKLIST
-1.2304 <s> SELECT </s>
-1.5315 <s> SELECT CLIMB
-1.5315 <s> SELECT COM1
-1.5315 <s> SELECT COM2
-1.2304 <s> SELECT FLAPS
-1.2304 <s> SELECT HEADING
-1.5315 <s> SELECT HNAV
-1.5315 <s> SELECT IN
-1.5315 <s> SELECT LNAV
-1.5315 <s> SELECT MAXIMUM
-1.5315 <s> SELECT PROPS
-1.5315 <s> SELECT SPEED
-1.5315 <s> SELECT TAKEOFF
-1.5315 <s> SELECT VNAV
-0.3010 <s> SELECTED </s>
-0.3010 <s> SELECTOR </s>
-0.3010 <s> SERVE MEALS
-5.7174 <s> SET </s>
-5.7174 <s> SET ADF1
-5.7174 <s> SET ADF2
-1.7173 <s> SET ALTIMETER
-2.9371 <s> SET ALTITUDE
-5.2403 <s> SET AND
-5.7174 <s> SET AUTOBRAKE
-5.7174 <s> SET CABIN
-0.6382 <s> SET COM1
-0.6382 <s> SET COM2
-5.4164 <s> SET COURSE
-5.7174 <s> SET EFIS
-5.7174 <s> SET FASTEN
-5.7174 <s> SET FLIGHT
-5.4164 <s> SET FOR
-3.4230 <s> SET HEADING
-5.7174 <s> SET LOCALIZER
-5.7174 <s> SET MODE
-5.7174 <s> SET N1
-5.7174 <s> SET N2
-5.7174 <s> SET ROTATE
-5.7174 <s> SET ROTATION
-5.4164 <s> SET SPEED
-4.7632 <s> SET SQUAWK
-5.7174 <s> SET STANDARD
-5.7174 <s> SET TAKEOFF
-4.6383 <s> SET THE
-5.7174 <s> SET TOGA
-1.7173 <s> SET TRANSPONDER
-5.7174 <s> SET V1
-5.7174 <s> SET V2
-5.7174 <s> SET VERTICAL
-0.3010 <s> SETUP </s>
-0.3010 <s> SEVEN </s>
-0.3010 <s> SEVENTEEN </s>
-0.3010 <s> SEVENTY </s>
-0.3010 <s> SHUT DOWN
-0.3010 <s> SID </s>
-0.3010 <s> SIGNAL </s>
-0.3010 <s> SIX </s>
-0.3010 <s> SIXTEEN </s>
-0.3010 <s> SIXTY </s>
-0.3010 <s> SORRY? </s>
-0.6021 <s> SPEED </s>
-0.6021 <s> SPEED INTERVENTION
-0.3010 <s> SPEEDBRAKE </s>
-0.7782 <s> SPEEDBRAKES </s>
-0.7782 <s> SPEEDBRAKES OFF
-0.7782 <s> SPEEDBRAKES ON
-0.3010 <s> SPOILERS </s>
-1.0792 <s> SQUAWK EMERGENCY
-1.0792 <s> SQUAWK IDENT
-1.0792 <s> SQUAWK IDENTIFY
-1.0792 <s> SQUAWK MILITARY
-1.0792 <s> SQUAWK RADIO
-1.0792 <s> SQUAWK VFR
-0.3010 <s> STANDARD </s>
-0.4771 <s> STANDBY </s>
-0.7782 <s> STANDBY POWER
-0.3010 <s> STAR </s>
-1.4150 <s> START </s>
-1.4150 <s> START AGAIN
-1.4150 <s> START APU
-1.4150 <s> START CHECKLIST
-0.9379 <s> START ENGINE
-1.4150 <s> START ENGINES
-1.4150 <s> START OVER
-1.4150 <s> START PUSHBACK
-1.1139 <s> START THE
-1.4150 <s> START UP
-0.6021 <s> STOP PUSHBACK
-0.6021 <s> STOP PUSHING
-0.3010 <s> STOWED </s>
-0.6021 <s> STROBE </s>
-0.6021 <s> STROBE LIGHT
-0.3010 <s> SWITCH ON
-0.3010 <s> SYNC </s>
-0.3010 <s> SYSTEM CHECKS
-0.3010 <s> TA </s>
-0.3010 <s> TA-RA </s>
-0.7782 <s> TAKEOFF CHECKLIST
-0.7782 <s> TAKEOFF FLAPS
-0.7782 <s> TAKEOFF SETTING
-1.0000 <s> TAXI CHECKLIST
-0.3979 <s> TAXI LIGHTS
-0.3010 <s> TAXIWAY </s>
-0.7782 <s> TELL ME
-0.4771 <s> TELL THE
-0.3010 <s> TEN </s>
-0.3010 <s> TEST </s>
-0.3010 <s> THANK YOU
-0.3010 <s> THE TRANSPONDER
-0.3010 <s> THEN </s>
-0.3010 <s> THIRTEEN </s>
-0.3010 <s> THIRTY </s>
-0.3010 <s> THOUSAND </s>
-0.3010 <s> THREE </s>
-0.6021 <s> THRUST REVERSAL
-0.6021 <s> THRUST REVERSERS
-1.2041 <s> TOGGLE AUTOPILOT
-1.2041 <s> TOGGLE AVIONICS
-1.2041 <s> TOGGLE REVERSE
-1.2041 <s> TOGGLE SPEED
-0.6021 <s> TOGGLE THE
-0.6021 <s> TRANSITION </s>
-0.6021 <s> TRANSITION LEVEL
-1.1461 <s> TRANSPONDER </s>
-0.8451 <s> TRANSPONDER MODE
-1.1461 <s> TRANSPONDER OFF
-1.1461 <s> TRANSPONDER ON
-1.1461 <s> TRANSPONDER STANDBY
-1.1461 <s> TRANSPONDER TO
-0.3010 <s> TUBE </s>
-0.6021 <s> TUNE COM1
-0.6021 <s> TUNE COM2
-0.3010 <s> TUNED </s>
-0.6307 <s> TURN OFF
-0.6114 <s> TURN ON
-1.6721 <s> TURN THE
-0.3010 <s> TURNOFF </s>
-0.3010 <s> TWELVE </s>
-0.3010 <s> TWENTY </s>
-0.3010 <s> TWO </s>
-0.3010 <s> UNIT </s>
-0.3010 <s> UNLOCKED </s>
-0.3010 <s> UP </s>
-0.3010 <s> V1 </s>
-0.3010 <s> V2 </s>
-0.3010 <s> VERIFY </s>
-0.6021 <s> VERTICAL NAVIGATION
-0.6021 <s> VERTICAL SPEED
-0.3010 <s> VFR </s>
-0.9031 <s> VNAV </s>
-0.9031 <s> VNAV OFF
-0.9031 <s> VNAV ON
-0.9031 <s> VNAV PATH
-0.3010 <s> VOR HOLD
-0.3010 <s> WAT? </s>
-0.3010 <s> WE'RE READY
-0.3010 <s> WEATHER </s>
-0.3010 <s> WHAT IS
-1.1461 <s> WHAT'S ROTATE
-1.1461 <s> WHAT'S ROTATION
-0.8451 <s> WHAT'S THE
-1.1461 <s> WHAT'S V1?
-1.1461 <s> WHAT'S V2?
-1.1461 <s> WHAT'S VR?
-0.3010 <s> WHAT? </s>
-0.7782 <s> WING </s>
-0.4771 <s> WING LIGHTS
-0.3010 <s> WITHIN </s>
-0.3010 <s> WORKING </s>
-0.3010 <s> WUT? </s>
-0.3010 <s> YAW DAMPER
-0.3010 <s> ZERO </s>
-0.4771 A COUPLE </s>
-0.7782 A COUPLE THOUSAND
-0.3010 A NOTCH </s>
-0.3010 A THOUSAND </s>
-0.3010 AFTER LANDING CHECKLIST
-0.3010 AFTER TAKEOFF CHECKLIST
-0.3010 ALL AUTO </s>
-0.3010 ALL AUTOMATIC </s>
-0.3010 ALL OFF </s>
-0.3010 ALL ON </s>
-1.0792 ALL THE DOORS
-0.7782 ALL THE FLAPS
-0.6021 ALL THE WAY
-0.3010 ALT HOLD </s>
-1.3010 ALTIMETER EIGHT EIGHT
-1.3010 ALTIMETER EIGHT FIVE
-1.3010 ALTIMETER EIGHT FOUR
-1.3010 ALTIMETER EIGHT NINE
-1.3010 ALTIMETER EIGHT ONE
-1.3010 ALTIMETER EIGHT SEVEN
-1.3010 ALTIMETER EIGHT SIX
-1.3010 ALTIMETER EIGHT THREE
-1.3010 ALTIMETER EIGHT TWO
-1.3010 ALTIMETER EIGHT ZERO
-1.3010 ALTIMETER FIVE EIGHT
-1.3010 ALTIMETER FIVE FIVE
-1.3010 ALTIMETER FIVE FOUR
-1.3010 ALTIMETER FIVE NINE
-1.3010 ALTIMETER FIVE ONE
-1.3010 ALTIMETER FIVE SEVEN
-1.3010 ALTIMETER FIVE SIX
-1.3010 ALTIMETER FIVE THREE
-1.3010 ALTIMETER FIVE TWO
-1.3010 ALTIMETER FIVE ZERO
-1.3010 ALTIMETER FOUR EIGHT
-1.3010 ALTIMETER FOUR FIVE
-1.3010 ALTIMETER FOUR FOUR
-1.3010 ALTIMETER FOUR NINE
-1.3010 ALTIMETER FOUR ONE
-1.3010 ALTIMETER FOUR SEVEN
-1.3010 ALTIMETER FOUR SIX
-1.3010 ALTIMETER FOUR THREE
-1.3010 ALTIMETER FOUR TWO
-1.3010 ALTIMETER FOUR ZERO
-1.3010 ALTIMETER NINE EIGHT
-1.3010 ALTIMETER NINE FIVE
-1.3010 ALTIMETER NINE FOUR
-1.3010 ALTIMETER NINE NINE
-1.3010 ALTIMETER NINE ONE
-1.3010 ALTIMETER NINE SEVEN
-1.3010 ALTIMETER NINE SIX
-1.3010 ALTIMETER NINE THREE
-1.3010 ALTIMETER NINE TWO
-1.3010 ALTIMETER NINE ZERO
-1.3010 ALTIMETER ONE EIGHT
-1.3010 ALTIMETER ONE FIVE
-1.3010 ALTIMETER ONE FOUR
-1.3010 ALTIMETER ONE NINE
-1.3010 ALTIMETER ONE ONE
-1.3010 ALTIMETER ONE SEVEN
-1.3010 ALTIMETER ONE SIX
-1.3010 ALTIMETER ONE THREE
-1.3010 ALTIMETER ONE TWO
-1.3010 ALTIMETER ONE ZERO
-1.3010 ALTIMETER SEVEN EIGHT
-1.3010 ALTIMETER SEVEN FIVE
-1.3010 ALTIMETER SEVEN FOUR
-1.3010 ALTIMETER SEVEN NINE
-1.3010 ALTIMETER SEVEN ONE
-1.3010 ALTIMETER SEVEN SEVEN
-1.3010 ALTIMETER SEVEN SIX
-1.3010 ALTIMETER SEVEN THREE
-1.3010 ALTIMETER SEVEN TWO
-1.3010 ALTIMETER SEVEN ZERO
-1.3010 ALTIMETER SIX EIGHT
-1.3010 ALTIMETER SIX FIVE
-1.3010 ALTIMETER SIX FOUR
-1.3010 ALTIMETER SIX NINE
-1.3010 ALTIMETER SIX ONE
-1.3010 ALTIMETER SIX SEVEN
-1.3010 ALTIMETER SIX SIX
-1.3010 ALTIMETER SIX THREE
-1.3010 ALTIMETER SIX TWO
-1.3010 ALTIMETER SIX ZERO
-0.3010 ALTIMETER STANDARD </s>
-1.3010 ALTIMETER THREE EIGHT
-1.3010 ALTIMETER THREE FIVE
-1.3010 ALTIMETER THREE FOUR
-1.3010 ALTIMETER THREE NINE
-1.3010 ALTIMETER THREE ONE
-1.3010 ALTIMETER THREE SEVEN
-1.3010 ALTIMETER THREE SIX
-1.3010 ALTIMETER THREE THREE
-1.3010 ALTIMETER THREE TWO
-1.3010 ALTIMETER THREE ZERO
-0.6021 ALTIMETER TO </s>
-0.6021 ALTIMETER TO STANDARD
-1.3010 ALTIMETER TWO EIGHT
-1.3010 ALTIMETER TWO FIVE
-1.3010 ALTIMETER TWO FOUR
-1.3010 ALTIMETER TWO NINE
-1.3010 ALTIMETER TWO ONE
-1.3010 ALTIMETER TWO SEVEN
-1.3010 ALTIMETER TWO SIX
-1.3010 ALTIMETER TWO THREE
-1.3010 ALTIMETER TWO TWO
-1.3010 ALTIMETER TWO ZERO
-1.3010 ALTIMETER ZERO EIGHT
-1.3010 ALTIMETER ZERO FIVE
-1.3010 ALTIMETER ZERO FOUR
-1.3010 ALTIMETER ZERO NINE
-1.3010 ALTIMETER ZERO ONE
-1.3010 ALTIMETER ZERO SEVEN
-1.3010 ALTIMETER ZERO SIX
-1.3010 ALTIMETER ZERO THREE
-1.3010 ALTIMETER ZERO TWO
-1.3010 ALTIMETER ZERO ZERO
-0.3010 ALTITUDE BUG TO
-1.3010 ALTITUDE EIGHTY EIGHT
-1.3010 ALTITUDE EIGHTY FIVE
-1.3010 ALTITUDE EIGHTY FOUR
-1.3010 ALTITUDE EIGHTY NINE
-1.3010 ALTITUDE EIGHTY ONE
-1.3010 ALTITUDE EIGHTY SEVEN
-1.3010 ALTITUDE EIGHTY SIX
-1.3010 ALTITUDE EIGHTY THREE
-1.3010 ALTITUDE EIGHTY TWO
-1.3010 ALTITUDE EIGHTY ZERO
-1.3010 ALTITUDE FIFTY EIGHT
-1.3010 ALTITUDE FIFTY FIVE
-1.3010 ALTITUDE FIFTY FOUR
-1.3010 ALTITUDE FIFTY NINE
-1.3010 ALTITUDE FIFTY ONE
-1.3010 ALTITUDE FIFTY SEVEN
-1.3010 ALTITUDE FIFTY SIX
-1.3010 ALTITUDE FIFTY THREE
-1.3010 ALTITUDE FIFTY TWO
-1.3010 ALTITUDE FIFTY ZERO
-1.3010 ALTITUDE FORTY EIGHT
-1.3010 ALTITUDE FORTY FIVE
-1.3010 ALTITUDE FORTY FOUR
-1.3010 ALTITUDE FORTY NINE
-1.3010 ALTITUDE FORTY ONE
-1.3010 ALTITUDE FORTY SEVEN
-1.3010 ALTITUDE FORTY SIX
-1.3010 ALTITUDE FORTY THREE
-1.3010 ALTITUDE FORTY TWO
-1.3010 ALTITUDE FORTY ZERO
-0.6021 ALTITUDE HOLD </s>
-0.9031 ALTITUDE HOLD OFF
-0.9031 ALTITUDE HOLD ON
-1.3010 ALTITUDE NINETY EIGHT
-1.3010 ALTITUDE NINETY FIVE
-1.3010 ALTITUDE NINETY FOUR
-1.3010 ALTITUDE NINETY NINE
-1.3010 ALTITUDE NINETY ONE
-1.3010 ALTITUDE NINETY SEVEN
-1.3010 ALTITUDE NINETY SIX
-1.3010 ALTITUDE NINETY THREE
-1.3010 ALTITUDE NINETY TWO
-1.3010 ALTITUDE NINETY ZERO
-1.3010 ALTITUDE SEVENTY EIGHT
-1.3010 ALTITUDE SEVENTY FIVE
-1.3010 ALTITUDE SEVENTY FOUR
-1.3010 ALTITUDE SEVENTY NINE
-1.3010 ALTITUDE SEVENTY ONE
-1.3010 ALTITUDE SEVENTY SEVEN
-1.3010 ALTITUDE SEVENTY SIX
-1.3010 ALTITUDE SEVENTY THREE
-1.3010 ALTITUDE SEVENTY TWO
-1.3010 ALTITUDE SEVENTY ZERO
-1.3010 ALTITUDE SIXTY EIGHT
-1.3010 ALTITUDE SIXTY FIVE
-1.3010 ALTITUDE SIXTY FOUR
-1.3010 ALTITUDE SIXTY NINE
-1.3010 ALTITUDE SIXTY ONE
-1.3010 ALTITUDE SIXTY SEVEN
-1.3010 ALTITUDE SIXTY SIX
-1.3010 ALTITUDE SIXTY THREE
-1.3010 ALTITUDE SIXTY TWO
-1.3010 ALTITUDE SIXTY ZERO
-1.3010 ALTITUDE TEN EIGHT
-1.3010 ALTITUDE TEN FIVE
-1.3010 ALTITUDE TEN FOUR
-1.3010 ALTITUDE TEN NINE
-1.3010 ALTITUDE TEN ONE
-1.3010 ALTITUDE TEN SEVEN
-1.3010 ALTITUDE TEN SIX
-1.3010 ALTITUDE TEN THREE
-1.3010 ALTITUDE TEN TWO
-1.3010 ALTITUDE TEN ZERO
-1.3010 ALTITUDE THIRTY EIGHT
-1.3010 ALTITUDE THIRTY FIVE
-1.3010 ALTITUDE THIRTY FOUR
-1.3010 ALTITUDE THIRTY NINE
-1.3010 ALTITUDE THIRTY ONE
-1.3010 ALTITUDE THIRTY SEVEN
-1.3010 ALTITUDE THIRTY SIX
-1.3010 ALTITUDE THIRTY THREE
-1.3010 ALTITUDE THIRTY TWO
-1.3010 ALTITUDE THIRTY ZERO
-0.3010 ALTITUDE TO </s>
-1.3010 ALTITUDE TWENTY EIGHT
-1.3010 ALTITUDE TWENTY FIVE
-1.3010 ALTITUDE TWENTY FOUR
-1.3010 ALTITUDE TWENTY NINE
-1.3010 ALTITUDE TWENTY ONE
-1.3010 ALTITUDE TWENTY SEVEN
-1.3010 ALTITUDE TWENTY SIX
-1.3010 ALTITUDE TWENTY THREE
-1.3010 ALTITUDE TWENTY TWO
-1.3010 ALTITUDE TWENTY ZERO
-1.3010 ALTITUDE ZERO EIGHT
-1.3010 ALTITUDE ZERO FIVE
-1.3010 ALTITUDE ZERO FOUR
-1.3010 ALTITUDE ZERO NINE
-1.3010 ALTITUDE ZERO ONE
-1.3010 ALTITUDE ZERO SEVEN
-1.3010 ALTITUDE ZERO SIX
-1.3010 ALTITUDE ZERO THREE
-1.3010 ALTITUDE ZERO TWO
-1.3010 ALTITUDE ZERO ZERO
-0.3010 AND CHECKED </s>
-0.3010 AND CLOSED </s>
-0.3010 AND CORRECT </s>
-0.3010 AND LOCKED </s>
-0.3010 AND OFF </s>
-0.3010 AND ON </s>
-0.3010 AND SET </s>
-0.3010 APPROACH CHECKLIST </s>
-0.3010 APU BLEED </s>
-0.3010 APU GENERATORS </s>
-0.3010 ARM AUTOTHROTTLE </s>
-0.3010 ARM LOCALIZER </s>
-0.3010 ARM SPEEDBRAKES </s>
-1.0000 ARM THE AUTOTHROTTLE
-1.0000 ARM THE AUTOTHROTTLES
-1.0000 ARM THE LOCALIZER
-1.0000 ARM THE SPEEDBRAKES
-1.0000 ARM THE SPOILERS
-0.3010 AROUND CHECKLIST </s>
-0.3010 AS DESIRED </s>
-0.3010 AS NEEDED </s>
-0.3010 AS REQUIRED </s>
-0.3010 AT MAX </s>
-0.3010 ATTENDANT TO SERVE
-0.3010 ATTENDANT WE'RE READY
-0.3010 AUTOPILOT CONNECT </s>
-0.3010 AUTOPILOT DISCONNECT </s>
-0.3010 AUTOPILOT OFF </s>
-0.3010 AUTOPILOT ON </s>
-0.3010 AUTOTHROTTLE OFF </s>
-0.3010 AUTOTHROTTLE ON </s>
-0.6021 BACK COURSE SID
-0.6021 BACK COURSE STAR
-0.7782 BACK TO BASICS
-0.4771 BACK TO THE
-0.3010 BARO REF </s>
-0.3010 BEACON LIGHT </s>
-0.4260 BEACON LIGHTS </s>
-1.2041 BEACON LIGHTS OFF
-1.2041 BEACON LIGHTS ON
-0.3010 BEFORE START CHECKLIST
-0.3010 BEFORE TAKEOFF CHECKLIST
-0.3010 BEFORE TAXI CHECKLIST
-0.3010 BELLY LANDING </s>
-0.3010 BOTH OFF </s>
-0.3010 BOTH ON </s>
-0.3010 BRAKE OFF </s>
-0.3010 BRAKE ON </s>
-0.3010 BRAKES OFF </s>
-0.3010 BRAKES ON </s>
-0.3010 BRIGHTEN INSTRUMENTS </s>
-0.3010 BRIGHTEN THE INSTRUMENTS
-0.3010 BUG TO </s>
-0.3010 BY ONE </s>
-0.3010 CABIN LIGHTING </s>
-0.3010 CABIN TEMPERATURE </s>
-0.3010 CAN WE DO
-0.3010 CANCEL LANDING </s>
-0.3010 CHANGE ADF1 </s>
-0.3010 CHANGE ADF2 </s>
-0.3010 CHANGE COM1 </s>
-0.3010 CHANGE COM2 </s>
-0.6021 CHANGE MODE OFF
-0.6021 CHANGE MODE ON
-0.3010 CHECK ALTIMETER </s>
-0.3010 CHECK AND SET
-0.3010 CHECK CONDITION </s>
-0.3010 CHECK LANDING ALTITUDE
-0.3010 CHECK QUANTITY </s>
-0.3010 CHECK VISUALLY </s>
-0.3010 CHECKED AND SET
-0.3010 CHECKLIST LATER </s>
-0.3010 CHECKLIST LATER? </s>
-0.3010 CHECKS CHECKLIST </s>
-0.3010 CIRCUIT BREAKERS </s>
-0.3010 CLIMB THRUST </s>
-0.3010 CLOSED AND LOCKED
-1.3010 COM1 EIGHT EIGHT
-1.3010 COM1 EIGHT FIVE
-1.3010 COM1 EIGHT FOUR
-1.3010 COM1 EIGHT NINE
-1.3010 COM1 EIGHT ONE
-1.3010 COM1 EIGHT SEVEN
-1.3010 COM1 EIGHT SIX
-1.3010 COM1 EIGHT THREE
-1.3010 COM1 EIGHT TWO
-1.3010 COM1 EIGHT ZERO
-1.3010 COM1 FIVE EIGHT
-1.3010 COM1 FIVE FIVE
-1.3010 COM1 FIVE FOUR
-1.3010 COM1 FIVE NINE
-1.3010 COM1 FIVE ONE
-1.3010 COM1 FIVE SEVEN
-1.3010 COM1 FIVE SIX
-1.3010 COM1 FIVE THREE
-1.3010 COM1 FIVE TWO
-1.3010 COM1 FIVE ZERO
-1.3010 COM1 FOUR EIGHT
-1.3010 COM1 FOUR FIVE
-1.3010 COM1 FOUR FOUR
-1.3010 COM1 FOUR NINE
-1.3010 COM1 FOUR ONE
-1.3010 COM1 FOUR SEVEN
-1.3010 COM1 FOUR SIX
-1.3010 COM1 FOUR THREE
-1.3010 COM1 FOUR TWO
-1.3010 COM1 FOUR ZERO
-1.3010 COM1 NINE EIGHT
-1.3010 COM1 NINE FIVE
-1.3010 COM1 NINE FOUR
-1.3010 COM1 NINE NINE
-1.3010 COM1 NINE ONE
-1.3010 COM1 NINE SEVEN
-1.3010 COM1 NINE SIX
-1.3010 COM1 NINE THREE
-1.3010 COM1 NINE TWO
-1.3010 COM1 NINE ZERO
-1.3010 COM1 ONE EIGHT
-1.3010 COM1 ONE FIVE
-1.3010 COM1 ONE FOUR
-1.3010 COM1 ONE NINE
-1.3010 COM1 ONE ONE
-1.3010 COM1 ONE SEVEN
-1.3010 COM1 ONE SIX
-1.3010 COM1 ONE THREE
-1.3010 COM1 ONE TWO
-1.3010 COM1 ONE ZERO
-1.3010 COM1 SEVEN EIGHT
-1.3010 COM1 SEVEN FIVE
-1.3010 COM1 SEVEN FOUR
-1.3010 COM1 SEVEN NINE
-1.3010 COM1 SEVEN ONE
-1.3010 COM1 SEVEN SEVEN
-1.3010 COM1 SEVEN SIX
-1.3010 COM1 SEVEN THREE
-1.3010 COM1 SEVEN TWO
-1.3010 COM1 SEVEN ZERO
-1.3010 COM1 SIX EIGHT
-1.3010 COM1 SIX FIVE
-1.3010 COM1 SIX FOUR
-1.3010 COM1 SIX NINE
-1.3010 COM1 SIX ONE
-1.3010 COM1 SIX SEVEN
-1.3010 COM1 SIX SIX
-1.3010 COM1 SIX THREE
-1.3010 COM1 SIX TWO
-1.3010 COM1 SIX ZERO
-1.3010 COM1 THREE EIGHT
-1.3010 COM1 THREE FIVE
-1.3010 COM1 THREE FOUR
-1.3010 COM1 THREE NINE
-1.3010 COM1 THREE ONE
-1.3010 COM1 THREE SEVEN
-1.3010 COM1 THREE SIX
-1.3010 COM1 THREE THREE
-1.3010 COM1 THREE TWO
-1.3010 COM1 THREE ZERO
-1.3010 COM1 TWO EIGHT
-1.3010 COM1 TWO FIVE
-1.3010 COM1 TWO FOUR
-1.3010 COM1 TWO NINE
-1.3010 COM1 TWO ONE
-1.3010 COM1 TWO SEVEN
-1.3010 COM1 TWO SIX
-1.3010 COM1 TWO THREE
-1.3010 COM1 TWO TWO
-1.3010 COM1 TWO ZERO
-1.3010 COM1 ZERO EIGHT
-1.3010 COM1 ZERO FIVE
-1.3010 COM1 ZERO FOUR
-1.3010 COM1 ZERO NINE
-1.3010 COM1 ZERO ONE
-1.3010 COM1 ZERO SEVEN
-1.3010 COM1 ZERO SIX
-1.3010 COM1 ZERO THREE
-1.3010 COM1 ZERO TWO
-1.3010 COM1 ZERO ZERO
-1.3010 COM2 EIGHT EIGHT
-1.3010 COM2 EIGHT FIVE
-1.3010 COM2 EIGHT FOUR
-1.3010 COM2 EIGHT NINE
-1.3010 COM2 EIGHT ONE
-1.3010 COM2 EIGHT SEVEN
-1.3010 COM2 EIGHT SIX
-1.3010 COM2 EIGHT THREE
-1.3010 COM2 EIGHT TWO
-1.3010 COM2 EIGHT ZERO
-1.3010 COM2 FIVE EIGHT
-1.3010 COM2 FIVE FIVE
-1.3010 COM2 FIVE FOUR
-1.3010 COM2 FIVE NINE
-1.3010 COM2 FIVE ONE
-1.3010 COM2 FIVE SEVEN
-1.3010 COM2 FIVE SIX
-1.3010 COM2 FIVE THREE
-1.3010 COM2 FIVE TWO
-1.3010 COM2 FIVE ZERO
-1.3010 COM2 FOUR EIGHT
-1.3010 COM2 FOUR FIVE
-1.3010 COM2 FOUR FOUR
-1.3010 COM2 FOUR NINE
-1.3010 COM2 FOUR ONE
-1.3010 COM2 FOUR SEVEN
-1.3010 COM2 FOUR SIX
-1.3010 COM2 FOUR THREE
-1.3010 COM2 FOUR TWO
-1.3010 COM2 FOUR ZERO
-1.3010 COM2 NINE EIGHT
-1.3010 COM2 NINE FIVE
-1.3010 COM2 NINE FOUR
-1.3010 COM2 NINE NINE
-1.3010 COM2 NINE ONE
-1.3010 COM2 NINE SEVEN
-1.3010 COM2 NINE SIX
-1.3010 COM2 NINE THREE
-1.3010 COM2 NINE TWO
-1.3010 COM2 NINE ZERO
-1.3010 COM2 ONE EIGHT
-1.3010 COM2 ONE FIVE
-1.3010 COM2 ONE FOUR
-1.3010 COM2 ONE NINE
-1.3010 COM2 ONE ONE
-1.3010 COM2 ONE SEVEN
-1.3010 COM2 ONE SIX
-1.3010 COM2 ONE THREE
-1.3010 COM2 ONE TWO
-1.3010 COM2 ONE ZERO
-1.3010 COM2 SEVEN EIGHT
-1.3010 COM2 SEVEN FIVE
-1.3010 COM2 SEVEN FOUR
-1.3010 COM2 SEVEN NINE
-1.3010 COM2 SEVEN ONE
-1.3010 COM2 SEVEN SEVEN
-1.3010 COM2 SEVEN SIX
-1.3010 COM2 SEVEN THREE
-1.3010 COM2 SEVEN TWO
-1.3010 COM2 SEVEN ZERO
-1.3010 COM2 SIX EIGHT
-1.3010 COM2 SIX FIVE
-1.3010 COM2 SIX FOUR
-1.3010 COM2 SIX NINE
-1.3010 COM2 SIX ONE
-1.3010 COM2 SIX SEVEN
-1.3010 COM2 SIX SIX
-1.3010 COM2 SIX THREE
-1.3010 COM2 SIX TWO
-1.3010 COM2 SIX ZERO
-1.3010 COM2 THREE EIGHT
-1.3010 COM2 THREE FIVE
-1.3010 COM2 THREE FOUR
-1.3010 COM2 THREE NINE
-1.3010 COM2 THREE ONE
-1.3010 COM2 THREE SEVEN
-1.3010 COM2 THREE SIX
-1.3010 COM2 THREE THREE
-1.3010 COM2 THREE TWO
-1.3010 COM2 THREE ZERO
-1.3010 COM2 TWO EIGHT
-1.3010 COM2 TWO FIVE
-1.3010 COM2 TWO FOUR
-1.3010 COM2 TWO NINE
-1.3010 COM2 TWO ONE
-1.3010 COM2 TWO SEVEN
-1.3010 COM2 TWO SIX
-1.3010 COM2 TWO THREE
-1.3010 COM2 TWO TWO
-1.3010 COM2 TWO ZERO
-1.3010 COM2 ZERO EIGHT
-1.3010 COM2 ZERO FIVE
-1.3010 COM2 ZERO FOUR
-1.3010 COM2 ZERO NINE
-1.3010 COM2 ZERO ONE
-1.3010 COM2 ZERO SEVEN
-1.3010 COM2 ZERO SIX
-1.3010 COM2 ZERO THREE
-1.3010 COM2 ZERO TWO
-1.3010 COM2 ZERO ZERO
-0.3010 COMMUNICATIONS 1 </s>
-0.3010 COMMUNICATIONS 2 </s>
-0.3010 CONNECT AUTOPILOT </s>
-0.3010 COULD YOU REPEAT
-0.3010 COULDN'T HEAR YOU
-0.3010 COUPLE THOUSAND </s>
-0.3010 COURSE SID </s>
-0.3010 COURSE STAR </s>
-0.3010 CREW WE'RE READY
-0.3010 CROSS CHECKED </s>
-0.3010 DESCENT CHECKLIST </s>
-0.3010 DESELECT HEADING SELECT
-0.3010 DESELECT SPEED INTERVENTION
-0.3010 DESELECT VERTICAL SPEED
-0.3010 DIRECTOR OFF </s>
-0.3010 DIRECTOR ON </s>
-0.3010 DIRECTORS OFF </s>
-0.3010 DIRECTORS ON </s>
-0.4771 DISABLE THE SEATBELT
-0.7782 DISABLE THE TRANSPONDER
-0.3010 DISABLE TRANSPONDER </s>
-0.3010 DISARM AUTOTHROTTLE </s>
-0.3010 DISARM SPEEDBRAKES </s>
-0.7782 DISARM THE AUTOTHROTTLE
-0.7782 DISARM THE AUTOTHROTTLES
-0.7782 DISARM THE SPEEDBRAKES
-0.3010 DISCONNECT AUTOPILOT </s>
-0.3010 DISCONNECT EXTERNAL POWER
-0.3010 DISCONNECT GROUND POWER
-0.3010 DISCONNECT THE AUTOPILOT
-0.3010 DISENGAGE BEACON LIGHTS
-0.3010 DISENGAGE REVERSE THRUST
-0.6021 DISENGAGE THE BRAKES
-0.6021 DISENGAGE THE LOGO
-0.3010 DO THE CHECKLIST
-0.3010 DO THIS CHECKLIST
-0.3010 DOWN AND CLOSED
-0.3010 DOWN CHECKLIST </s>
-0.3010 DOWN ENGINE </s>
-0.3010 DOWN THE APU
-0.3010 DUE EAST </s>
-0.3010 DUE SOUTH </s>
-0.3010 DUE WEST </s>
-1.8016 EIGHT EIGHT </s>
-1.4337 EIGHT EIGHT EIGHT
-1.4337 EIGHT EIGHT FIVE
-1.4337 EIGHT EIGHT FOUR
-1.4337 EIGHT EIGHT NINE
-1.3245 EIGHT EIGHT ONE
-1.4337 EIGHT EIGHT SEVEN
-1.4337 EIGHT EIGHT SIX
-1.9777 EIGHT EIGHT TEN
-1.4337 EIGHT EIGHT THREE
-1.4337 EIGHT EIGHT TWO
-0.8808 EIGHT EIGHT ZERO
-0.6021 EIGHT EIGHTY </s>
-0.6021 EIGHT EIGHTY DEGREES
-0.3010 EIGHT FEET </s>
-0.6021 EIGHT FIFTY </s>
-0.6021 EIGHT FIFTY DEGREES
-1.8016 EIGHT FIVE </s>
-1.4337 EIGHT FIVE EIGHT
-1.4337 EIGHT FIVE FIVE
-1.4337 EIGHT FIVE FOUR
-1.4337 EIGHT FIVE NINE
-1.3245 EIGHT FIVE ONE
-1.4337 EIGHT FIVE SEVEN
-1.4337 EIGHT FIVE SIX
-1.9777 EIGHT FIVE TEN
-1.4337 EIGHT FIVE THREE
-1.4337 EIGHT FIVE TWO
-0.8808 EIGHT FIVE ZERO
-0.6021 EIGHT FORTY </s>
-0.6021 EIGHT FORTY DEGREES
-1.8016 EIGHT FOUR </s>
-1.4337 EIGHT FOUR EIGHT
-1.4337 EIGHT FOUR FIVE
-1.4337 EIGHT FOUR FOUR
-1.4337 EIGHT FOUR NINE
-1.3245 EIGHT FOUR ONE
-1.4337 EIGHT FOUR SEVEN
-1.4337 EIGHT FOUR SIX
-1.9777 EIGHT FOUR TEN
-1.4337 EIGHT FOUR THREE
-1.4337 EIGHT FOUR TWO
-0.8808 EIGHT FOUR ZERO
-0.6021 EIGHT HUNDRED </s>
-0.6021 EIGHT HUNDRED FEET
-1.8016 EIGHT NINE </s>
-1.4337 EIGHT NINE EIGHT
-1.4337 EIGHT NINE FIVE
-1.4337 EIGHT NINE FOUR
-1.4337 EIGHT NINE NINE
-1.3245 EIGHT NINE ONE
-1.4337 EIGHT NINE SEVEN
-1.4337 EIGHT NINE SIX
-1.9777 EIGHT NINE TEN
-1.4337 EIGHT NINE THREE
-1.4337 EIGHT NINE TWO
-0.8808 EIGHT NINE ZERO
-0.6021 EIGHT NINETY </s>
-0.6021 EIGHT NINETY DEGREES
-1.8846 EIGHT ONE </s>
-1.5166 EIGHT ONE EIGHT
-1.5166 EIGHT ONE FIVE
-1.5166 EIGHT ONE FOUR
-1.5166 EIGHT ONE NINE
-1.4075 EIGHT ONE ONE
-1.5166 EIGHT ONE SEVEN
-1.5166 EIGHT ONE SIX
-2.0607 EIGHT ONE TEN
-1.5166 EIGHT ONE THREE
-1.5166 EIGHT ONE TWO
-0.7085 EIGHT ONE ZERO
-1.8016 EIGHT SEVEN </s>
-1.4337 EIGHT SEVEN EIGHT
-1.4337 EIGHT SEVEN FIVE
-1.4337 EIGHT SEVEN FOUR
-1.4337 EIGHT SEVEN NINE
-1.3245 EIGHT SEVEN ONE
-1.4337 EIGHT SEVEN SEVEN
-1.4337 EIGHT SEVEN SIX
-1.9777 EIGHT SEVEN TEN
-1.4337 EIGHT SEVEN THREE
-1.4337 EIGHT SEVEN TWO
-0.8808 EIGHT SEVEN ZERO
-0.6021 EIGHT SEVENTY </s>
-0.6021 EIGHT SEVENTY DEGREES
-1.8016 EIGHT SIX </s>
-1.4337 EIGHT SIX EIGHT
-1.4337 EIGHT SIX FIVE
-1.4337 EIGHT SIX FOUR
-1.4337 EIGHT SIX NINE
-1.3245 EIGHT SIX ONE
-1.4337 EIGHT SIX SEVEN
-1.4337 EIGHT SIX SIX
-1.9777 EIGHT SIX TEN
-1.4337 EIGHT SIX THREE
-1.4337 EIGHT SIX TWO
-0.8808 EIGHT SIX ZERO
-0.6021 EIGHT SIXTY </s>
-0.6021 EIGHT SIXTY DEGREES
-3.9033 EIGHT TEN </s>
-3.9033 EIGHT TEN DEGREES
-0.3012 EIGHT TEN ZERO
-0.6021 EIGHT THIRTY </s>
-0.6021 EIGHT THIRTY DEGREES
-0.6021 EIGHT THOUSAND </s>
-0.6021 EIGHT THOUSAND FEET
-1.8016 EIGHT THREE </s>
-1.4337 EIGHT THREE EIGHT
-1.4337 EIGHT THREE FIVE
-1.4337 EIGHT THREE FOUR
-1.4337 EIGHT THREE NINE
-1.3245 EIGHT THREE ONE
-1.4337 EIGHT THREE SEVEN
-1.4337 EIGHT THREE SIX
-1.9777 EIGHT THREE TEN
-1.4337 EIGHT THREE THREE
-1.4337 EIGHT THREE TWO
-0.8808 EIGHT THREE ZERO
-0.6021 EIGHT TWENTY </s>
-0.6021 EIGHT TWENTY DEGREES
-1.8016 EIGHT TWO </s>
-1.4337 EIGHT TWO EIGHT
-1.4337 EIGHT TWO FIVE
-1.4337 EIGHT TWO FOUR
-1.4337 EIGHT TWO NINE
-1.3245 EIGHT TWO ONE
-1.4337 EIGHT TWO SEVEN
-1.4337 EIGHT TWO SIX
-1.9777 EIGHT TWO TEN
-1.4337 EIGHT TWO THREE
-1.4337 EIGHT TWO TWO
-0.8808 EIGHT TWO ZERO
-2.2625 EIGHT ZERO </s>
-1.8953 EIGHT ZERO EIGHT
-1.8953 EIGHT ZERO FIVE
-1.8953 EIGHT ZERO FOUR
-1.8953 EIGHT ZERO NINE
-1.7861 EIGHT ZERO ONE
-1.8953 EIGHT ZERO SEVEN
-1.8953 EIGHT ZERO SIX
-2.4393 EIGHT ZERO TEN
-1.8953 EIGHT ZERO THREE
-1.8953 EIGHT ZERO TWO
-0.4286 EIGHT ZERO ZERO
-0.3010 EIGHTY DEGREES </s>
-1.0792 EIGHTY EIGHT </s>
-1.0792 EIGHTY EIGHT FEET
-0.7782 EIGHTY EIGHT HUNDRED
-0.7782 EIGHTY EIGHT THOUSAND
-1.0792 EIGHTY FIVE </s>
-1.0792 EIGHTY FIVE FEET
-0.7782 EIGHTY FIVE HUNDRED
-0.7782 EIGHTY FIVE THOUSAND
-1.0792 EIGHTY FOUR </s>
-1.0792 EIGHTY FOUR FEET
-0.7782 EIGHTY FOUR HUNDRED
-0.7782 EIGHTY FOUR THOUSAND
-1.0792 EIGHTY NINE </s>
-1.0792 EIGHTY NINE FEET
-0.7782 EIGHTY NINE HUNDRED
-0.7782 EIGHTY NINE THOUSAND
-1.0792 EIGHTY ONE </s>
-1.0792 EIGHTY ONE FEET
-0.7782 EIGHTY ONE HUNDRED
-0.7782 EIGHTY ONE THOUSAND
-1.0792 EIGHTY SEVEN </s>
-1.0792 EIGHTY SEVEN FEET
-0.7782 EIGHTY SEVEN HUNDRED
-0.7782 EIGHTY SEVEN THOUSAND
-1.0792 EIGHTY SIX </s>
-1.0792 EIGHTY SIX FEET
-0.7782 EIGHTY SIX HUNDRED
-0.7782 EIGHTY SIX THOUSAND
-1.0792 EIGHTY THREE </s>
-1.0792 EIGHTY THREE FEET
-0.7782 EIGHTY THREE HUNDRED
-0.7782 EIGHTY THREE THOUSAND
-1.0792 EIGHTY TWO </s>
-1.0792 EIGHTY TWO FEET
-0.7782 EIGHTY TWO HUNDRED
-0.7782 EIGHTY TWO THOUSAND
-1.0792 EIGHTY ZERO </s>
-1.0792 EIGHTY ZERO FEET
-0.7782 EIGHTY ZERO HUNDRED
-0.7782 EIGHTY ZERO THOUSAND
-0.3010 ENABLE THE TRANSPONDER
-0.3010 ENABLE TRANSPONDER </s>
-0.3010 ENGAGE BEACON LIGHTS
-0.3010 ENGAGE REVERSE THRUST
-0.3010 ENGAGE THE LOGO
-0.3010 ENGINE NUMBER </s>
-0.3010 EUROPEAN VFR </s>
-0.3010 EXTEND GEAR </s>
-0.3010 EXTEND THE GEAR
-0.3010 EXTERNAL POWER </s>
-0.3010 FASTEN BELTS </s>
-0.3010 FIFTY DEGREES </s>
-1.0792 FIFTY EIGHT </s>
-1.0792 FIFTY EIGHT FEET
-0.7782 FIFTY EIGHT HUNDRED
-0.7782 FIFTY EIGHT THOUSAND
-1.0792 FIFTY FIVE </s>
-1.0792 FIFTY FIVE FEET
-0.7782 FIFTY FIVE HUNDRED
-0.7782 FIFTY FIVE THOUSAND
-1.0792 FIFTY FOUR </s>
-1.0792 FIFTY FOUR FEET
-0.7782 FIFTY FOUR HUNDRED
-0.7782 FIFTY FOUR THOUSAND
-1.0792 FIFTY NINE </s>
-1.0792 FIFTY NINE FEET
-0.7782 FIFTY NINE HUNDRED
-0.7782 FIFTY NINE THOUSAND
-1.0792 FIFTY ONE </s>
-1.0792 FIFTY ONE FEET
-0.7782 FIFTY ONE HUNDRED
-0.7782 FIFTY ONE THOUSAND
-1.0792 FIFTY SEVEN </s>
-1.0792 FIFTY SEVEN FEET
-0.7782 FIFTY SEVEN HUNDRED
-0.7782 FIFTY SEVEN THOUSAND
-1.0792 FIFTY SIX </s>
-1.0792 FIFTY SIX FEET
-0.7782 FIFTY SIX HUNDRED
-0.7782 FIFTY SIX THOUSAND
-1.0792 FIFTY THREE </s>
-1.0792 FIFTY THREE FEET
-0.7782 FIFTY THREE HUNDRED
-0.7782 FIFTY THREE THOUSAND
-1.0792 FIFTY TWO </s>
-1.0792 FIFTY TWO FEET
-0.7782 FIFTY TWO HUNDRED
-0.7782 FIFTY TWO THOUSAND
-1.0792 FIFTY ZERO </s>
-1.0792 FIFTY ZERO FEET
-0.7782 FIFTY ZERO HUNDRED
-0.7782 FIFTY ZERO THOUSAND
-1.8016 FIVE EIGHT </s>
-1.4337 FIVE EIGHT EIGHT
-1.4337 FIVE EIGHT FIVE
-1.4337 FIVE EIGHT FOUR
-1.4337 FIVE EIGHT NINE
-1.3245 FIVE EIGHT ONE
-1.4337 FIVE EIGHT SEVEN
-1.4337 FIVE EIGHT SIX
-1.9777 FIVE EIGHT TEN
-1.4337 FIVE EIGHT THREE
-1.4337 FIVE EIGHT TWO
-0.8808 FIVE EIGHT ZERO
-0.6021 FIVE EIGHTY </s>
-0.6021 FIVE EIGHTY DEGREES
-0.3010 FIVE FEET </s>
-0.6021 FIVE FIFTY </s>
-0.6021 FIVE FIFTY DEGREES
-1.8016 FIVE FIVE </s>
-1.4337 FIVE FIVE EIGHT
-1.4337 FIVE FIVE FIVE
-1.4337 FIVE FIVE FOUR
-1.4337 FIVE FIVE NINE
-1.3245 FIVE FIVE ONE
-1.4337 FIVE FIVE SEVEN
-1.4337 FIVE FIVE SIX
-1.9777 FIVE FIVE TEN
-1.4337 FIVE FIVE THREE
-1.4337 FIVE FIVE TWO
-0.8808 FIVE FIVE ZERO
-0.6021 FIVE FORTY </s>
-0.6021 FIVE FORTY DEGREES
-1.8016 FIVE FOUR </s>
-1.4337 FIVE FOUR EIGHT
-1.4337 FIVE FOUR FIVE
-1.4337 FIVE FOUR FOUR
-1.4337 FIVE FOUR NINE
-1.3245 FIVE FOUR ONE
-1.4337 FIVE FOUR SEVEN
-1.4337 FIVE FOUR SIX
-1.9777 FIVE FOUR TEN
-1.4337 FIVE FOUR THREE
-1.4337 FIVE FOUR TWO
-0.8808 FIVE FOUR ZERO
-0.6021 FIVE HUNDRED </s>
-0.6021 FIVE HUNDRED FEET
-1.8016 FIVE NINE </s>
-1.4337 FIVE NINE EIGHT
-1.4337 FIVE NINE FIVE
-1.4337 FIVE NINE FOUR
-1.4337 FIVE NINE NINE
-1.3245 FIVE NINE ONE
-1.4337 FIVE NINE SEVEN
-1.4337 FIVE NINE SIX
-1.9777 FIVE NINE TEN
-1.4337 FIVE NINE THREE
-1.4337 FIVE NINE TWO
-0.8808 FIVE NINE ZERO
-0.6021 FIVE NINETY </s>
-0.6021 FIVE NINETY DEGREES
-1.8846 FIVE ONE </s>
-1.5166 FIVE ONE EIGHT
-1.5166 FIVE ONE FIVE
-1.5166 FIVE ONE FOUR
-1.5166 FIVE ONE NINE
-1.4075 FIVE ONE ONE
-1.5166 FIVE ONE SEVEN
-1.5166 FIVE ONE SIX
-2.0607 FIVE ONE TEN
-1.5166 FIVE ONE THREE
-1.5166 FIVE ONE TWO
-0.7085 FIVE ONE ZERO
-1.8016 FIVE SEVEN </s>
-1.4337 FIVE SEVEN EIGHT
-1.4337 FIVE SEVEN FIVE
-1.4337 FIVE SEVEN FOUR
-1.4337 FIVE SEVEN NINE
-1.3245 FIVE SEVEN ONE
-1.4337 FIVE SEVEN SEVEN
-1.4337 FIVE SEVEN SIX
-1.9777 FIVE SEVEN TEN
-1.4337 FIVE SEVEN THREE
-1.4337 FIVE SEVEN TWO
-0.8808 FIVE SEVEN ZERO
-0.6021 FIVE SEVENTY </s>
-0.6021 FIVE SEVENTY DEGREES
-1.8016 FIVE SIX </s>
-1.4337 FIVE SIX EIGHT
-1.4337 FIVE SIX FIVE
-1.4337 FIVE SIX FOUR
-1.4337 FIVE SIX NINE
-1.3245 FIVE SIX ONE
-1.4337 FIVE SIX SEVEN
-1.4337 FIVE SIX SIX
-1.9777 FIVE SIX TEN
-1.4337 FIVE SIX THREE
-1.4337 FIVE SIX TWO
-0.8808 FIVE SIX ZERO
-0.6021 FIVE SIXTY </s>
-0.6021 FIVE SIXTY DEGREES
-3.9033 FIVE TEN </s>
-3.9033 FIVE TEN DEGREES
-0.3012 FIVE TEN ZERO
-0.6021 FIVE THIRTY </s>
-0.6021 FIVE THIRTY DEGREES
-0.6021 FIVE THOUSAND </s>
-0.6021 FIVE THOUSAND FEET
-1.8016 FIVE THREE </s>
-1.4337 FIVE THREE EIGHT
-1.4337 FIVE THREE FIVE
-1.4337 FIVE THREE FOUR
-1.4337 FIVE THREE NINE
-1.3245 FIVE THREE ONE
-1.4337 FIVE THREE SEVEN
-1.4337 FIVE THREE SIX
-1.9777 FIVE THREE TEN
-1.4337 FIVE THREE THREE
-1.4337 FIVE THREE TWO
-0.8808 FIVE THREE ZERO
-0.6021 FIVE TWENTY </s>
-0.6021 FIVE TWENTY DEGREES
-1.8016 FIVE TWO </s>
-1.4337 FIVE TWO EIGHT
-1.4337 FIVE TWO FIVE
-1.4337 FIVE TWO FOUR
-1.4337 FIVE TWO NINE
-1.3245 FIVE TWO ONE
-1.4337 FIVE TWO SEVEN
-1.4337 FIVE TWO SIX
-1.9777 FIVE TWO TEN
-1.4337 FIVE TWO THREE
-1.4337 FIVE TWO TWO
-0.8808 FIVE TWO ZERO
-2.2632 FIVE ZERO </s>
-1.8953 FIVE ZERO EIGHT
-1.8953 FIVE ZERO FIVE
-1.8953 FIVE ZERO FOUR
-1.8953 FIVE ZERO NINE
-1.7861 FIVE ZERO ONE
-1.8953 FIVE ZERO SEVEN
-1.8953 FIVE ZERO SIX
-2.4393 FIVE ZERO TEN
-1.8953 FIVE ZERO THREE
-1.8953 FIVE ZERO TWO
-0.4286 FIVE ZERO ZERO
-0.3010 FLAPS DOWN </s>
-0.8751 FLAPS UP </s>
-1.1761 FLAPS UP A
-1.1761 FLAPS UP ALL
-1.1761 FLAPS UP BY
-1.1761 FLAPS UP ENTIRELY
-1.4771 FLAPS UP ONE
-1.1761 FLAPS UP THE
-0.3010 FLARE ARMED </s>
-0.9031 FLIGHT ATTENDANT </s>
-0.9031 FLIGHT ATTENDANT TO
-0.6021 FLIGHT ATTENDANT WE'RE
-0.7782 FLIGHT DIRECTOR </s>
-0.7782 FLIGHT DIRECTOR OFF
-0.7782 FLIGHT DIRECTOR ON
-0.6021 FLIGHT DIRECTORS OFF
-0.6021 FLIGHT DIRECTORS ON
-0.4771 FLIGHT LEVEL </s>
-0.7782 FLIGHT LEVEL TO
-0.3010 FLIP COM1 </s>
-0.3010 FLIP COM2 </s>
-0.3010 FLIP NAV1 </s>
-0.3010 FLIP NAV2 </s>
-0.3010 FLIP OFF THE
-0.3010 FLIP ON THE
-0.3010 FOR BOARDING </s>
-0.3010 FOR CRUISE </s>
-0.3010 FOR DEPARTURE </s>
-0.3010 FOR PUSHBACK </s>
-0.3010 FOR TAKEOFF </s>
-0.3010 FOR TAXI </s>
-0.3010 FORGET IT </s>
-0.3010 FORGET THE CHECKLIST
-0.3010 FORGET THIS </s>
-0.3010 FORTY DEGREES </s>
-1.0792 FORTY EIGHT </s>
-1.0792 FORTY EIGHT FEET
-0.7782 FORTY EIGHT HUNDRED
-0.7782 FORTY EIGHT THOUSAND
-1.0792 FORTY FIVE </s>
-1.0792 FORTY FIVE FEET
-0.7782 FORTY FIVE HUNDRED
-0.7782 FORTY FIVE THOUSAND
-1.0792 FORTY FOUR </s>
-1.0792 FORTY FOUR FEET
-0.7782 FORTY FOUR HUNDRED
-0.7782 FORTY FOUR THOUSAND
-1.0792 FORTY NINE </s>
-1.0792 FORTY NINE FEET
-0.7782 FORTY NINE HUNDRED
-0.7782 FORTY NINE THOUSAND
-1.0792 FORTY ONE </s>
-1.0792 FORTY ONE FEET
-0.7782 FORTY ONE HUNDRED
-0.7782 FORTY ONE THOUSAND
-1.0792 FORTY SEVEN </s>
-1.0792 FORTY SEVEN FEET
-0.7782 FORTY SEVEN HUNDRED
-0.7782 FORTY SEVEN THOUSAND
-1.0792 FORTY SIX </s>
-1.0792 FORTY SIX FEET
-0.7782 FORTY SIX HUNDRED
-0.7782 FORTY SIX THOUSAND
-1.0792 FORTY THREE </s>
-1.0792 FORTY THREE FEET
-0.7782 FORTY THREE HUNDRED
-0.7782 FORTY THREE THOUSAND
-1.0792 FORTY TWO </s>
-1.0792 FORTY TWO FEET
-0.7782 FORTY TWO HUNDRED
-0.7782 FORTY TWO THOUSAND
-1.0792 FORTY ZERO </s>
-1.0792 FORTY ZERO FEET
-0.7782 FORTY ZERO HUNDRED
-0.7782 FORTY ZERO THOUSAND
-1.8016 FOUR EIGHT </s>
-1.4337 FOUR EIGHT EIGHT
-1.4337 FOUR EIGHT FIVE
-1.4337 FOUR EIGHT FOUR
-1.4337 FOUR EIGHT NINE
-1.3245 FOUR EIGHT ONE
-1.4337 FOUR EIGHT SEVEN
-1.4337 FOUR EIGHT SIX
-1.9777 FOUR EIGHT TEN
-1.4337 FOUR EIGHT THREE
-1.4337 FOUR EIGHT TWO
-0.8808 FOUR EIGHT ZERO
-0.6021 FOUR EIGHTY </s>
-0.6021 FOUR EIGHTY DEGREES
-0.3010 FOUR FEET </s>
-0.6021 FOUR FIFTY </s>
-0.6021 FOUR FIFTY DEGREES
-1.8016 FOUR FIVE </s>
-1.4337 FOUR FIVE EIGHT
-1.4337 FOUR FIVE FIVE
-1.4337 FOUR FIVE FOUR
-1.4337 FOUR FIVE NINE
-1.3245 FOUR FIVE ONE
-1.4337 FOUR FIVE SEVEN
-1.4337 FOUR FIVE SIX
-1.9777 FOUR FIVE TEN
-1.4337 FOUR FIVE THREE
-1.4337 FOUR FIVE TWO
-0.8808 FOUR FIVE ZERO
-0.6021 FOUR FORTY </s>
-0.6021 FOUR FORTY DEGREES
-1.8016 FOUR FOUR </s>
-1.4337 FOUR FOUR EIGHT
-1.4337 FOUR FOUR FIVE
-1.4337 FOUR FOUR FOUR
-1.4337 FOUR FOUR NINE
-1.3245 FOUR FOUR ONE
-1.4337 FOUR FOUR SEVEN
-1.4337 FOUR FOUR SIX
-1.9777 FOUR FOUR TEN
-1.4337 FOUR FOUR THREE
-1.4337 FOUR FOUR TWO
-0.8808 FOUR FOUR ZERO
-0.6021 FOUR HUNDRED </s>
-0.6021 FOUR HUNDRED FEET
-1.8016 FOUR NINE </s>
-1.4337 FOUR NINE EIGHT
-1.4337 FOUR NINE FIVE
-1.4337 FOUR NINE FOUR
-1.4337 FOUR NINE NINE
-1.3245 FOUR NINE ONE
-1.4337 FOUR NINE SEVEN
-1.4337 FOUR NINE SIX
-1.9777 FOUR NINE TEN
-1.4337 FOUR NINE THREE
-1.4337 FOUR NINE TWO
-0.8808 FOUR NINE ZERO
-0.6021 FOUR NINETY </s>
-0.6021 FOUR NINETY DEGREES
-1.8846 FOUR ONE </s>
-1.5166 FOUR ONE EIGHT
-1.5166 FOUR ONE FIVE
-1.5166 FOUR ONE FOUR
-1.5166 FOUR ONE NINE
-1.4075 FOUR ONE ONE
-1.5166 FOUR ONE SEVEN
-1.5166 FOUR ONE SIX
-2.0607 FOUR ONE TEN
-1.5166 FOUR ONE THREE
-1.5166 FOUR ONE TWO
-0.7085 FOUR ONE ZERO
-1.8016 FOUR SEVEN </s>
-1.4337 FOUR SEVEN EIGHT
-1.4337 FOUR SEVEN FIVE
-1.4337 FOUR SEVEN FOUR
-1.4337 FOUR SEVEN NINE
-1.3245 FOUR SEVEN ONE
-1.4337 FOUR SEVEN SEVEN
-1.4337 FOUR SEVEN SIX
-1.9777 FOUR SEVEN TEN
-1.4337 FOUR SEVEN THREE
-1.4337 FOUR SEVEN TWO
-0.8808 FOUR SEVEN ZERO
-0.6021 FOUR SEVENTY </s>
-0.6021 FOUR SEVENTY DEGREES
-1.8016 FOUR SIX </s>
-1.4337 FOUR SIX EIGHT
-1.4337 FOUR SIX FIVE
-1.4337 FOUR SIX FOUR
-1.4337 FOUR SIX NINE
-1.3245 FOUR SIX ONE
-1.4337 FOUR SIX SEVEN
-1.4337 FOUR SIX SIX
-1.9777 FOUR SIX TEN
-1.4337 FOUR SIX THREE
-1.4337 FOUR SIX TWO
-0.8808 FOUR SIX ZERO
-0.6021 FOUR SIXTY </s>
-0.6021 FOUR SIXTY DEGREES
-3.9033 FOUR TEN </s>
-3.9033 FOUR TEN DEGREES
-0.3012 FOUR TEN ZERO
-0.6021 FOUR THIRTY </s>
-0.6021 FOUR THIRTY DEGREES
-0.6021 FOUR THOUSAND </s>
-0.6021 FOUR THOUSAND FEET
-1.8016 FOUR THREE </s>
-1.4337 FOUR THREE EIGHT
-1.4337 FOUR THREE FIVE
-1.4337 FOUR THREE FOUR
-1.4337 FOUR THREE NINE
-1.3245 FOUR THREE ONE
-1.4337 FOUR THREE SEVEN
-1.4337 FOUR THREE SIX
-1.9777 FOUR THREE TEN
-1.4337 FOUR THREE THREE
-1.4337 FOUR THREE TWO
-0.8808 FOUR THREE ZERO
-0.6021 FOUR TWENTY </s>
-0.6021 FOUR TWENTY DEGREES
-1.8016 FOUR TWO </s>
